#define Korder 120 
float A1[Korder][2] = { 
{-0.144209, 0.729622} ,
{0.144209, 0.729622} ,
{-0.423767, 0.742158} ,
{0.423767, 0.742158} ,
{0.679312, 0.763986} ,
{-0.679312, 0.763986} ,
{-0.901800, 0.790507} ,
{0.901800, 0.790507} ,
{1.088665, 0.817750} ,
{-1.088665, 0.817750} ,
{-1.241968, 0.843208} ,
{1.241968, 0.843208} ,
{1.366106, 0.865722} ,
{-1.366106, 0.865722} ,
{1.466103, 0.885011} ,
{-1.466103, 0.885011} ,
{1.546672, 0.901261} ,
{-1.546672, 0.901261} ,
{-1.611830, 0.914845} ,
{1.611830, 0.914845} ,
{1.664835, 0.926176} ,
{-1.664835, 0.926176} ,
{-1.708262, 0.935643} ,
{1.708262, 0.935643} ,
{1.744113, 0.943580} ,
{-1.744113, 0.943580} ,
{1.773941, 0.950268} ,
{-1.773941, 0.950268} ,
{-1.798948, 0.955933} ,
{1.798948, 0.955933} ,
{-1.820071, 0.960760} ,
{1.820071, 0.960760} ,
{1.838040, 0.964897} ,
{-1.838040, 0.964897} ,
{-1.853427, 0.968464} ,
{1.853427, 0.968464} ,
{1.866688, 0.971556} ,
{-1.866688, 0.971556} ,
{1.878183, 0.974251} ,
{-1.878183, 0.974251} ,
{1.888204, 0.976612} ,
{-1.888204, 0.976612} ,
{-1.896984, 0.978692} ,
{1.896984, 0.978692} ,
{-1.904715, 0.980531} ,
{1.904715, 0.980531} ,
{-1.911552, 0.982166} ,
{1.911552, 0.982166} ,
{-1.917624, 0.983626} ,
{1.917624, 0.983626} ,
{-1.923038, 0.984934} ,
{1.923038, 0.984934} ,
{-1.927882, 0.986111} ,
{1.927882, 0.986111} ,
{-1.932232, 0.987174} ,
{1.932232, 0.987174} ,
{1.936151, 0.988137} ,
{-1.936151, 0.988137} ,
{1.939690, 0.989014} ,
{-1.939690, 0.989014} ,
{1.942896, 0.989814} ,
{-1.942896, 0.989814} ,
{-1.945808, 0.990546} ,
{1.945808, 0.990546} ,
{1.948459, 0.991218} ,
{-1.948459, 0.991218} ,
{-1.950877, 0.991838} ,
{1.950877, 0.991838} ,
{1.953087, 0.992410} ,
{-1.953087, 0.992410} ,
{1.955111, 0.992941} ,
{-1.955111, 0.992941} ,
{-1.956967, 0.993434} ,
{1.956967, 0.993434} ,
{1.958673, 0.993893} ,
{-1.958673, 0.993893} ,
{1.960242, 0.994323} ,
{-1.960242, 0.994323} ,
{1.961686, 0.994725} ,
{-1.961686, 0.994725} ,
{-1.963018, 0.995103} ,
{1.963018, 0.995103} ,
{-1.964246, 0.995460} ,
{1.964246, 0.995460} ,
{-1.965380, 0.995797} ,
{1.965380, 0.995797} ,
{-1.966428, 0.996116} ,
{1.966428, 0.996116} ,
{-1.967396, 0.996419} ,
{1.967396, 0.996419} ,
{-1.968289, 0.996708} ,
{1.968289, 0.996708} ,
{-1.969115, 0.996984} ,
{1.969115, 0.996984} ,
{-1.969877, 0.997249} ,
{1.969877, 0.997249} ,
{-1.970581, 0.997503} ,
{1.970581, 0.997503} ,
{1.971228, 0.997748} ,
{-1.971228, 0.997748} ,
{1.971825, 0.997986} ,
{-1.971825, 0.997986} ,
{1.972372, 0.998216} ,
{-1.972372, 0.998216} ,
{1.972873, 0.998440} ,
{-1.972873, 0.998440} ,
{1.973331, 0.998658} ,
{-1.973331, 0.998658} ,
{-1.973748, 0.998872} ,
{1.973748, 0.998872} ,
{1.974124, 0.999082} ,
{-1.974124, 0.999082} ,
{-1.974463, 0.999289} ,
{1.974463, 0.999289} ,
{-1.974766, 0.999494} ,
{1.974766, 0.999494} ,
{1.975033, 0.999697} ,
{-1.975033, 0.999697} ,
{1.975265, 0.999899} ,
{-1.975265, 0.999899} 
};

float B1[Korder][3] = { 
{0.977802, -0.160996} ,
{0.977802, 0.160996} ,
{0.977802, -0.470303} ,
{0.977802, 0.470303} ,
{0.977802, 0.746113} ,
{0.977802, -0.746113} ,
{0.977802, -0.977927} ,
{0.977802, 0.977927} ,
{0.977802, 1.165058} ,
{0.977802, -1.165058} ,
{0.977802, -1.312672} ,
{0.977802, 1.312672} ,
{0.977802, 1.427976} ,
{0.977802, -1.427976} ,
{0.977802, 1.517971} ,
{0.977802, -1.517971} ,
{0.977802, 1.588553} ,
{0.977802, -1.588553} ,
{0.977802, -1.644352} ,
{0.977802, 1.644352} ,
{0.977802, 1.688889} ,
{0.977802, -1.688889} ,
{0.977802, -1.724801} ,
{0.977802, 1.724801} ,
{0.977802, 1.754053} ,
{0.977802, -1.754053} ,
{0.977802, 1.778118} ,
{0.977802, -1.778118} ,
{0.977802, -1.798101} ,
{0.977802, 1.798101} ,
{0.977802, -1.814842} ,
{0.977802, 1.814842} ,
{0.977802, 1.828982} ,
{0.977802, -1.828982} ,
{0.977802, -1.841016} ,
{0.977802, 1.841016} ,
{0.977802, 1.851331} ,
{0.977802, -1.851331} ,
{0.977802, 1.860230} ,
{0.977802, -1.860230} ,
{0.977802, 1.867953} ,
{0.977802, -1.867953} ,
{0.977802, -1.874693} ,
{0.977802, 1.874693} ,
{0.977802, -1.880606} ,
{0.977802, 1.880606} ,
{0.977802, -1.885818} ,
{0.977802, 1.885818} ,
{0.977802, -1.890431} ,
{0.977802, 1.890431} ,
{0.977802, -1.894531} ,
{0.977802, 1.894531} ,
{0.977802, -1.898189} ,
{0.977802, 1.898189} ,
{0.977802, -1.901463} ,
{0.977802, 1.901463} ,
{0.977802, 1.904403} ,
{0.977802, -1.904403} ,
{0.977802, 1.907050} ,
{0.977802, -1.907050} ,
{0.977802, 1.909440} ,
{0.977802, -1.909440} ,
{0.977802, -1.911603} ,
{0.977802, 1.911603} ,
{0.977802, 1.913565} ,
{0.977802, -1.913565} ,
{0.977802, -1.915347} ,
{0.977802, 1.915347} ,
{0.977802, 1.916969} ,
{0.977802, -1.916969} ,
{0.977802, 1.918448} ,
{0.977802, -1.918448} ,
{0.977802, -1.919797} ,
{0.977802, 1.919797} ,
{0.977802, 1.921029} ,
{0.977802, -1.921029} ,
{0.977802, 1.922156} ,
{0.977802, -1.922156} ,
{0.977802, 1.923186} ,
{0.977802, -1.923186} ,
{0.977802, -1.924128} ,
{0.977802, 1.924128} ,
{0.977802, -1.924990} ,
{0.977802, 1.924990} ,
{0.977802, -1.925778} ,
{0.977802, 1.925778} ,
{0.977802, -1.926497} ,
{0.977802, 1.926497} ,
{0.977802, -1.927153} ,
{0.977802, 1.927153} ,
{0.977802, -1.927750} ,
{0.977802, 1.927750} ,
{0.977802, -1.928293} ,
{0.977802, 1.928293} ,
{0.977802, -1.928785} ,
{0.977802, 1.928785} ,
{0.977802, -1.929228} ,
{0.977802, 1.929228} ,
{0.977802, 1.929626} ,
{0.977802, -1.929626} ,
{0.977802, 1.929981} ,
{0.977802, -1.929981} ,
{0.977802, 1.930295} ,
{0.977802, -1.930295} ,
{0.977802, 1.930569} ,
{0.977802, -1.930569} ,
{0.977802, 1.930807} ,
{0.977802, -1.930807} ,
{0.977802, -1.931008} ,
{0.977802, 1.931008} ,
{0.977802, 1.931173} ,
{0.977802, -1.931173} ,
{0.977802, -1.931305} ,
{0.977802, 1.931305} ,
{0.977802, -1.931403} ,
{0.977802, 1.931403} ,
{0.977802, 1.931468} ,
{0.977802, -1.931468} ,
{0.977802, 1.931501} ,
{0.977802, -1.931501} 
};

float A2[Korder][2] = { 
{0.074986, 0.857685} ,
{-0.074986, 0.857685} ,
{0.223662, 0.859476} ,
{-0.223662, 0.859476} ,
{0.368560, 0.862928} ,
{-0.368560, 0.862928} ,
{0.507505, 0.867803} ,
{-0.507505, 0.867803} ,
{-0.638773, 0.873796} ,
{0.638773, 0.873796} ,
{0.761160, 0.880575} ,
{-0.761160, 0.880575} ,
{-0.873977, 0.887822} ,
{0.873977, 0.887822} ,
{0.976995, 0.895258} ,
{-0.976995, 0.895258} ,
{1.070352, 0.902658} ,
{-1.070352, 0.902658} ,
{1.154459, 0.909852} ,
{-1.154459, 0.909852} ,
{1.229906, 0.916722} ,
{-1.229906, 0.916722} ,
{1.297381, 0.923195} ,
{-1.297381, 0.923195} ,
{-1.357616, 0.929231} ,
{1.357616, 0.929231} ,
{1.411337, 0.934819} ,
{-1.411337, 0.934819} ,
{-1.459240, 0.939962} ,
{1.459240, 0.939962} ,
{-1.501975, 0.944677} ,
{1.501975, 0.944677} ,
{1.540133, 0.948990} ,
{-1.540133, 0.948990} ,
{-1.574247, 0.952927} ,
{1.574247, 0.952927} ,
{1.604793, 0.956520} ,
{-1.604793, 0.956520} ,
{1.632190, 0.959796} ,
{-1.632190, 0.959796} ,
{-1.656810, 0.962787} ,
{1.656810, 0.962787} ,
{1.678975, 0.965517} ,
{-1.678975, 0.965517} ,
{1.698970, 0.968013} ,
{-1.698970, 0.968013} ,
{1.717044, 0.970298} ,
{-1.717044, 0.970298} ,
{1.733412, 0.972391} ,
{-1.733412, 0.972391} ,
{1.748264, 0.974314} ,
{-1.748264, 0.974314} ,
{-1.761766, 0.976082} ,
{1.761766, 0.976082} ,
{1.774063, 0.977710} ,
{-1.774063, 0.977710} ,
{1.785281, 0.979214} ,
{-1.785281, 0.979214} ,
{-1.795532, 0.980604} ,
{1.795532, 0.980604} ,
{-1.804913, 0.981892} ,
{1.804913, 0.981892} ,
{-1.813512, 0.983088} ,
{1.813512, 0.983088} ,
{-1.821403, 0.984201} ,
{1.821403, 0.984201} ,
{1.828654, 0.985239} ,
{-1.828654, 0.985239} ,
{1.835324, 0.986208} ,
{-1.835324, 0.986208} ,
{1.841466, 0.987115} ,
{-1.841466, 0.987115} ,
{1.847126, 0.987966} ,
{-1.847126, 0.987966} ,
{1.852347, 0.988767} ,
{-1.852347, 0.988767} ,
{-1.857164, 0.989521} ,
{1.857164, 0.989521} ,
{1.861611, 0.990233} ,
{-1.861611, 0.990233} ,
{1.865717, 0.990907} ,
{-1.865717, 0.990907} ,
{1.869508, 0.991546} ,
{-1.869508, 0.991546} ,
{1.873008, 0.992154} ,
{-1.873008, 0.992154} ,
{1.876238, 0.992733} ,
{-1.876238, 0.992733} ,
{1.879217, 0.993287} ,
{-1.879217, 0.993287} ,
{-1.881961, 0.993817} ,
{1.881961, 0.993817} ,
{1.884486, 0.994326} ,
{-1.884486, 0.994326} ,
{-1.886805, 0.994816} ,
{1.886805, 0.994816} ,
{1.888931, 0.995288} ,
{-1.888931, 0.995288} ,
{1.890874, 0.995746} ,
{-1.890874, 0.995746} ,
{1.892643, 0.996189} ,
{-1.892643, 0.996189} ,
{1.894248, 0.996621} ,
{-1.894248, 0.996621} ,
{1.895695, 0.997042} ,
{-1.895695, 0.997042} ,
{-1.896992, 0.997454} ,
{1.896992, 0.997454} ,
{1.898145, 0.997859} ,
{-1.898145, 0.997859} ,
{-1.899157, 0.998257} ,
{1.899157, 0.998257} ,
{1.900035, 0.998649} ,
{-1.900035, 0.998649} ,
{-1.900780, 0.999038} ,
{1.900780, 0.999038} ,
{-1.901397, 0.999424} ,
{1.901397, 0.999424} ,
{-1.901887, 0.999808} ,
{1.901887, 0.999808} 
};

float B2[Korder][3] = { 
{0.980245, 0.078879} ,
{0.980245, -0.078879} ,
{0.980245, 0.235066} ,
{0.980245, -0.235066} ,
{0.980245, 0.386694} ,
{0.980245, -0.386694} ,
{0.980245, 0.531199} ,
{0.980245, -0.531199} ,
{0.980245, -0.666624} ,
{0.980245, 0.666624} ,
{0.980245, 0.791696} ,
{0.980245, -0.791696} ,
{0.980245, -0.905792} ,
{0.980245, 0.905792} ,
{0.980245, 1.008844} ,
{0.980245, -1.008844} ,
{0.980245, 1.101205} ,
{0.980245, -1.101205} ,
{0.980245, 1.183512} ,
{0.980245, -1.183512} ,
{0.980245, 1.256570} ,
{0.980245, -1.256570} ,
{0.980245, 1.321259} ,
{0.980245, -1.321259} ,
{0.980245, -1.378466} ,
{0.980245, 1.378466} ,
{0.980245, 1.429041} ,
{0.980245, -1.429041} ,
{0.980245, -1.473774} ,
{0.980245, 1.473774} ,
{0.980245, -1.513383} ,
{0.980245, 1.513383} ,
{0.980245, 1.548507} ,
{0.980245, -1.548507} ,
{0.980245, -1.579710} ,
{0.980245, 1.579710} ,
{0.980245, 1.607487} ,
{0.980245, -1.607487} ,
{0.980245, 1.632267} ,
{0.980245, -1.632267} ,
{0.980245, -1.654424} ,
{0.980245, 1.654424} ,
{0.980245, 1.674281} ,
{0.980245, -1.674281} ,
{0.980245, 1.692117} ,
{0.980245, -1.692117} ,
{0.980245, 1.708174} ,
{0.980245, -1.708174} ,
{0.980245, 1.722661} ,
{0.980245, -1.722661} ,
{0.980245, 1.735759} ,
{0.980245, -1.735759} ,
{0.980245, -1.747625} ,
{0.980245, 1.747625} ,
{0.980245, 1.758396} ,
{0.980245, -1.758396} ,
{0.980245, 1.768191} ,
{0.980245, -1.768191} ,
{0.980245, -1.777112} ,
{0.980245, 1.777112} ,
{0.980245, -1.785252} ,
{0.980245, 1.785252} ,
{0.980245, -1.792688} ,
{0.980245, 1.792688} ,
{0.980245, -1.799491} ,
{0.980245, 1.799491} ,
{0.980245, 1.805721} ,
{0.980245, -1.805721} ,
{0.980245, 1.811433} ,
{0.980245, -1.811433} ,
{0.980245, 1.816674} ,
{0.980245, -1.816674} ,
{0.980245, 1.821485} ,
{0.980245, -1.821485} ,
{0.980245, 1.825905} ,
{0.980245, -1.825905} ,
{0.980245, -1.829965} ,
{0.980245, 1.829965} ,
{0.980245, 1.833696} ,
{0.980245, -1.833696} ,
{0.980245, 1.837123} ,
{0.980245, -1.837123} ,
{0.980245, 1.840269} ,
{0.980245, -1.840269} ,
{0.980245, 1.843156} ,
{0.980245, -1.843156} ,
{0.980245, 1.845801} ,
{0.980245, -1.845801} ,
{0.980245, 1.848222} ,
{0.980245, -1.848222} ,
{0.980245, -1.850431} ,
{0.980245, 1.850431} ,
{0.980245, 1.852444} ,
{0.980245, -1.852444} ,
{0.980245, -1.854270} ,
{0.980245, 1.854270} ,
{0.980245, 1.855922} ,
{0.980245, -1.855922} ,
{0.980245, 1.857406} ,
{0.980245, -1.857406} ,
{0.980245, 1.858733} ,
{0.980245, -1.858733} ,
{0.980245, 1.859908} ,
{0.980245, -1.859908} ,
{0.980245, 1.860938} ,
{0.980245, -1.860938} ,
{0.980245, -1.861828} ,
{0.980245, 1.861828} ,
{0.980245, 1.862583} ,
{0.980245, -1.862583} ,
{0.980245, -1.863206} ,
{0.980245, 1.863206} ,
{0.980245, 1.863701} ,
{0.980245, -1.863701} ,
{0.980245, -1.864070} ,
{0.980245, 1.864070} ,
{0.980245, -1.864315} ,
{0.980245, 1.864315} ,
{0.980245, -1.864438} ,
{0.980245, 1.864438} 
};

float A3[Korder][2] = { 
{0.034847, 0.933665} ,
{-0.034847, 0.933665} ,
{0.104392, 0.933875} ,
{-0.104392, 0.933875} ,
{0.173496, 0.934291} ,
{-0.173496, 0.934291} ,
{0.241875, 0.934907} ,
{-0.241875, 0.934907} ,
{0.309257, 0.935712} ,
{-0.309257, 0.935712} ,
{0.375394, 0.936693} ,
{-0.375394, 0.936693} ,
{0.440059, 0.937835} ,
{-0.440059, 0.937835} ,
{0.503052, 0.939122} ,
{-0.503052, 0.939122} ,
{-0.564202, 0.940535} ,
{0.564202, 0.940535} ,
{-0.623367, 0.942056} ,
{0.623367, 0.942056} ,
{-0.680434, 0.943667} ,
{0.680434, 0.943667} ,
{0.735321, 0.945350} ,
{-0.735321, 0.945350} ,
{0.787969, 0.947087} ,
{-0.787969, 0.947087} ,
{-0.838349, 0.948862} ,
{0.838349, 0.948862} ,
{0.886450, 0.950661} ,
{-0.886450, 0.950661} ,
{-0.932283, 0.952471} ,
{0.932283, 0.952471} ,
{0.975877, 0.954279} ,
{-0.975877, 0.954279} ,
{1.017273, 0.956076} ,
{-1.017273, 0.956076} ,
{1.056525, 0.957852} ,
{-1.056525, 0.957852} ,
{-1.093697, 0.959601} ,
{1.093697, 0.959601} ,
{1.128860, 0.961316} ,
{-1.128860, 0.961316} ,
{1.162088, 0.962992} ,
{-1.162088, 0.962992} ,
{1.193460, 0.964627} ,
{-1.193460, 0.964627} ,
{-1.223059, 0.966216} ,
{1.223059, 0.966216} ,
{-1.250965, 0.967758} ,
{1.250965, 0.967758} ,
{-1.277259, 0.969253} ,
{1.277259, 0.969253} ,
{-1.302022, 0.970699} ,
{1.302022, 0.970699} ,
{-1.325332, 0.972097} ,
{1.325332, 0.972097} ,
{-1.347265, 0.973446} ,
{1.347265, 0.973446} ,
{1.367893, 0.974748} ,
{-1.367893, 0.974748} ,
{-1.387287, 0.976004} ,
{1.387287, 0.976004} ,
{1.405513, 0.977214} ,
{-1.405513, 0.977214} ,
{-1.422634, 0.978381} ,
{1.422634, 0.978381} ,
{-1.438712, 0.979507} ,
{1.438712, 0.979507} ,
{1.453802, 0.980592} ,
{-1.453802, 0.980592} ,
{1.467958, 0.981638} ,
{-1.467958, 0.981638} ,
{1.481229, 0.982648} ,
{-1.481229, 0.982648} ,
{-1.493663, 0.983624} ,
{1.493663, 0.983624} ,
{1.505304, 0.984566} ,
{-1.505304, 0.984566} ,
{-1.516191, 0.985477} ,
{1.516191, 0.985477} ,
{-1.526364, 0.986359} ,
{1.526364, 0.986359} ,
{-1.535858, 0.987213} ,
{1.535858, 0.987213} ,
{-1.544705, 0.988042} ,
{1.544705, 0.988042} ,
{1.552935, 0.988846} ,
{-1.552935, 0.988846} ,
{-1.560577, 0.989628} ,
{1.560577, 0.989628} ,
{1.567656, 0.990390} ,
{-1.567656, 0.990390} ,
{1.574196, 0.991132} ,
{-1.574196, 0.991132} ,
{1.580219, 0.991856} ,
{-1.580219, 0.991856} ,
{-1.585743, 0.992565} ,
{1.585743, 0.992565} ,
{-1.590788, 0.993258} ,
{1.590788, 0.993258} ,
{1.595370, 0.993939} ,
{-1.595370, 0.993939} ,
{-1.599503, 0.994608} ,
{1.599503, 0.994608} ,
{-1.603199, 0.995266} ,
{1.603199, 0.995266} ,
{-1.606471, 0.995915} ,
{1.606471, 0.995915} ,
{1.609328, 0.996556} ,
{-1.609328, 0.996556} ,
{-1.611780, 0.997191} ,
{1.611780, 0.997191} ,
{-1.613832, 0.997820} ,
{1.613832, 0.997820} ,
{1.615491, 0.998446} ,
{-1.615491, 0.998446} ,
{-1.616762, 0.999068} ,
{1.616762, 0.999068} ,
{1.617648, 0.999690} ,
{-1.617648, 0.999690} 
};

float B3[Korder][3] = { 
{0.985148, 0.035475} ,
{0.985148, -0.035475} ,
{0.985148, 0.106263} ,
{0.985148, -0.106263} ,
{0.985148, 0.176569} ,
{0.985148, -0.176569} ,
{0.985148, 0.246084} ,
{0.985148, -0.246084} ,
{0.985148, 0.314513} ,
{0.985148, -0.314513} ,
{0.985148, 0.381589} ,
{0.985148, -0.381589} ,
{0.985148, 0.447068} ,
{0.985148, -0.447068} ,
{0.985148, 0.510739} ,
{0.985148, -0.510739} ,
{0.985148, -0.572422} ,
{0.985148, 0.572422} ,
{0.985148, -0.631973} ,
{0.985148, 0.631973} ,
{0.985148, -0.689278} ,
{0.985148, 0.689278} ,
{0.985148, 0.744257} ,
{0.985148, -0.744257} ,
{0.985148, 0.796860} ,
{0.985148, -0.796860} ,
{0.985148, -0.847062} ,
{0.985148, 0.847062} ,
{0.985148, 0.894865} ,
{0.985148, -0.894865} ,
{0.985148, -0.940290} ,
{0.985148, 0.940290} ,
{0.985148, 0.983376} ,
{0.985148, -0.983376} ,
{0.985148, 1.024177} ,
{0.985148, -1.024177} ,
{0.985148, 1.062760} ,
{0.985148, -1.062760} ,
{0.985148, -1.099197} ,
{0.985148, 1.099197} ,
{0.985148, 1.133572} ,
{0.985148, -1.133572} ,
{0.985148, 1.165968} ,
{0.985148, -1.165968} ,
{0.985148, 1.196475} ,
{0.985148, -1.196475} ,
{0.985148, -1.225182} ,
{0.985148, 1.225182} ,
{0.985148, -1.252177} ,
{0.985148, 1.252177} ,
{0.985148, -1.277549} ,
{0.985148, 1.277549} ,
{0.985148, -1.301384} ,
{0.985148, 1.301384} ,
{0.985148, -1.323763} ,
{0.985148, 1.323763} ,
{0.985148, -1.344769} ,
{0.985148, 1.344769} ,
{0.985148, 1.364476} ,
{0.985148, -1.364476} ,
{0.985148, -1.382959} ,
{0.985148, 1.382959} ,
{0.985148, 1.400286} ,
{0.985148, -1.400286} ,
{0.985148, -1.416523} ,
{0.985148, 1.416523} ,
{0.985148, -1.431731} ,
{0.985148, 1.431731} ,
{0.985148, 1.445968} ,
{0.985148, -1.445968} ,
{0.985148, 1.459288} ,
{0.985148, -1.459288} ,
{0.985148, 1.471742} ,
{0.985148, -1.471742} ,
{0.985148, -1.483377} ,
{0.985148, 1.483377} ,
{0.985148, 1.494237} ,
{0.985148, -1.494237} ,
{0.985148, -1.504363} ,
{0.985148, 1.504363} ,
{0.985148, -1.513792} ,
{0.985148, 1.513792} ,
{0.985148, -1.522560} ,
{0.985148, 1.522560} ,
{0.985148, -1.530699} ,
{0.985148, 1.530699} ,
{0.985148, 1.538239} ,
{0.985148, -1.538239} ,
{0.985148, -1.545207} ,
{0.985148, 1.545207} ,
{0.985148, 1.551628} ,
{0.985148, -1.551628} ,
{0.985148, 1.557526} ,
{0.985148, -1.557526} ,
{0.985148, 1.562920} ,
{0.985148, -1.562920} ,
{0.985148, -1.567831} ,
{0.985148, 1.567831} ,
{0.985148, -1.572276} ,
{0.985148, 1.572276} ,
{0.985148, 1.576269} ,
{0.985148, -1.576269} ,
{0.985148, -1.579825} ,
{0.985148, 1.579825} ,
{0.985148, -1.582957} ,
{0.985148, 1.582957} ,
{0.985148, -1.585674} ,
{0.985148, 1.585674} ,
{0.985148, 1.587986} ,
{0.985148, -1.587986} ,
{0.985148, -1.589901} ,
{0.985148, 1.589901} ,
{0.985148, -1.591425} ,
{0.985148, 1.591425} ,
{0.985148, 1.592564} ,
{0.985148, -1.592564} ,
{0.985148, -1.593321} ,
{0.985148, 1.593321} ,
{0.985148, 1.593699} ,
{0.985148, -1.593699} 
};

float A4[Korder][2] = { 
{0.008437, 0.983928} ,
{-0.008437, 0.983928} ,
{0.025303, 0.983942} ,
{-0.025303, 0.983942} ,
{0.042146, 0.983968} ,
{-0.042146, 0.983968} ,
{0.058953, 0.984008} ,
{-0.058953, 0.984008} ,
{0.075707, 0.984060} ,
{-0.075707, 0.984060} ,
{0.092395, 0.984126} ,
{-0.092395, 0.984126} ,
{0.109002, 0.984205} ,
{-0.109002, 0.984205} ,
{0.125514, 0.984296} ,
{-0.125514, 0.984296} ,
{0.141917, 0.984400} ,
{-0.141917, 0.984400} ,
{0.158197, 0.984516} ,
{-0.158197, 0.984516} ,
{-0.174340, 0.984644} ,
{0.174340, 0.984644} ,
{-0.190333, 0.984784} ,
{0.190333, 0.984784} ,
{-0.206163, 0.984936} ,
{0.206163, 0.984936} ,
{0.221819, 0.985100} ,
{-0.221819, 0.985100} ,
{0.237286, 0.985274} ,
{-0.237286, 0.985274} ,
{0.252554, 0.985460} ,
{-0.252554, 0.985460} ,
{0.267612, 0.985656} ,
{-0.267612, 0.985656} ,
{0.282447, 0.985862} ,
{-0.282447, 0.985862} ,
{-0.297050, 0.986079} ,
{0.297050, 0.986079} ,
{0.311410, 0.986305} ,
{-0.311410, 0.986305} ,
{0.325519, 0.986540} ,
{-0.325519, 0.986540} ,
{-0.339365, 0.986784} ,
{0.339365, 0.986784} ,
{0.352941, 0.987037} ,
{-0.352941, 0.987037} ,
{0.366238, 0.987298} ,
{-0.366238, 0.987298} ,
{0.379247, 0.987567} ,
{-0.379247, 0.987567} ,
{0.391963, 0.987844} ,
{-0.391963, 0.987844} ,
{0.404376, 0.988128} ,
{-0.404376, 0.988128} ,
{0.416482, 0.988420} ,
{-0.416482, 0.988420} ,
{0.428272, 0.988717} ,
{-0.428272, 0.988717} ,
{0.439742, 0.989021} ,
{-0.439742, 0.989021} ,
{0.450886, 0.989331} ,
{-0.450886, 0.989331} ,
{0.461698, 0.989647} ,
{-0.461698, 0.989647} ,
{0.472175, 0.989968} ,
{-0.472175, 0.989968} ,
{0.482311, 0.990295} ,
{-0.482311, 0.990295} ,
{-0.492102, 0.990626} ,
{0.492102, 0.990626} ,
{0.501545, 0.990961} ,
{-0.501545, 0.990961} ,
{0.510636, 0.991301} ,
{-0.510636, 0.991301} ,
{-0.519371, 0.991645} ,
{0.519371, 0.991645} ,
{-0.527749, 0.991993} ,
{0.527749, 0.991993} ,
{-0.535766, 0.992344} ,
{0.535766, 0.992344} ,
{0.543420, 0.992698} ,
{-0.543420, 0.992698} ,
{0.550709, 0.993056} ,
{-0.550709, 0.993056} ,
{0.557630, 0.993416} ,
{-0.557630, 0.993416} ,
{0.564182, 0.993779} ,
{-0.564182, 0.993779} ,
{-0.570363, 0.994144} ,
{0.570363, 0.994144} ,
{0.576171, 0.994512} ,
{-0.576171, 0.994512} ,
{-0.581606, 0.994882} ,
{0.581606, 0.994882} ,
{-0.586666, 0.995253} ,
{0.586666, 0.995253} ,
{0.591350, 0.995627} ,
{-0.591350, 0.995627} ,
{-0.595657, 0.996001} ,
{0.595657, 0.996001} ,
{0.599586, 0.996378} ,
{-0.599586, 0.996378} ,
{0.603137, 0.996755} ,
{-0.603137, 0.996755} ,
{0.606308, 0.997134} ,
{-0.606308, 0.997134} ,
{0.609099, 0.997514} ,
{-0.609099, 0.997514} ,
{0.611510, 0.997895} ,
{-0.611510, 0.997895} ,
{0.613540, 0.998277} ,
{-0.613540, 0.998277} ,
{0.615188, 0.998659} ,
{-0.615188, 0.998659} ,
{-0.616454, 0.999041} ,
{0.616454, 0.999041} ,
{0.617338, 0.999425} ,
{-0.617338, 0.999425} ,
{0.617840, 0.999808} ,
{-0.617840, 0.999808} 
};

float B4[Korder][3] = { 
{0.995025, 0.008460} ,
{0.995025, -0.008460} ,
{0.995025, 0.025372} ,
{0.995025, -0.025372} ,
{0.995025, 0.042261} ,
{0.995025, -0.042261} ,
{0.995025, 0.059112} ,
{0.995025, -0.059112} ,
{0.995025, 0.075910} ,
{0.995025, -0.075910} ,
{0.995025, 0.092639} ,
{0.995025, -0.092639} ,
{0.995025, 0.109286} ,
{0.995025, -0.109286} ,
{0.995025, 0.125836} ,
{0.995025, -0.125836} ,
{0.995025, 0.142273} ,
{0.995025, -0.142273} ,
{0.995025, 0.158584} ,
{0.995025, -0.158584} ,
{0.995025, -0.174756} ,
{0.995025, 0.174756} ,
{0.995025, -0.190774} ,
{0.995025, 0.190774} ,
{0.995025, -0.206625} ,
{0.995025, 0.206625} ,
{0.995025, 0.222297} ,
{0.995025, -0.222297} ,
{0.995025, 0.237777} ,
{0.995025, -0.237777} ,
{0.995025, 0.253054} ,
{0.995025, -0.253054} ,
{0.995025, 0.268115} ,
{0.995025, -0.268115} ,
{0.995025, 0.282949} ,
{0.995025, -0.282949} ,
{0.995025, -0.297546} ,
{0.995025, 0.297546} ,
{0.995025, 0.311896} ,
{0.995025, -0.311896} ,
{0.995025, 0.325988} ,
{0.995025, -0.325988} ,
{0.995025, -0.339813} ,
{0.995025, 0.339813} ,
{0.995025, 0.353362} ,
{0.995025, -0.353362} ,
{0.995025, 0.366627} ,
{0.995025, -0.366627} ,
{0.995025, 0.379600} ,
{0.995025, -0.379600} ,
{0.995025, 0.392273} ,
{0.995025, -0.392273} ,
{0.995025, 0.404639} ,
{0.995025, -0.404639} ,
{0.995025, 0.416692} ,
{0.995025, -0.416692} ,
{0.995025, 0.428425} ,
{0.995025, -0.428425} ,
{0.995025, 0.439833} ,
{0.995025, -0.439833} ,
{0.995025, 0.450909} ,
{0.995025, -0.450909} ,
{0.995025, 0.461650} ,
{0.995025, -0.461650} ,
{0.995025, 0.472050} ,
{0.995025, -0.472050} ,
{0.995025, 0.482105} ,
{0.995025, -0.482105} ,
{0.995025, -0.491811} ,
{0.995025, 0.491811} ,
{0.995025, 0.501164} ,
{0.995025, -0.501164} ,
{0.995025, 0.510162} ,
{0.995025, -0.510162} ,
{0.995025, -0.518801} ,
{0.995025, 0.518801} ,
{0.995025, -0.527078} ,
{0.995025, 0.527078} ,
{0.995025, -0.534991} ,
{0.995025, 0.534991} ,
{0.995025, 0.542538} ,
{0.995025, -0.542538} ,
{0.995025, 0.549717} ,
{0.995025, -0.549717} ,
{0.995025, 0.556526} ,
{0.995025, -0.556526} ,
{0.995025, 0.562963} ,
{0.995025, -0.562963} ,
{0.995025, -0.569027} ,
{0.995025, 0.569027} ,
{0.995025, 0.574716} ,
{0.995025, -0.574716} ,
{0.995025, -0.580031} ,
{0.995025, 0.580031} ,
{0.995025, -0.584968} ,
{0.995025, 0.584968} ,
{0.995025, 0.589529} ,
{0.995025, -0.589529} ,
{0.995025, -0.593712} ,
{0.995025, 0.593712} ,
{0.995025, 0.597516} ,
{0.995025, -0.597516} ,
{0.995025, 0.600941} ,
{0.995025, -0.600941} ,
{0.995025, 0.603986} ,
{0.995025, -0.603986} ,
{0.995025, 0.606652} ,
{0.995025, -0.606652} ,
{0.995025, 0.608937} ,
{0.995025, -0.608937} ,
{0.995025, 0.610842} ,
{0.995025, -0.610842} ,
{0.995025, 0.612366} ,
{0.995025, -0.612366} ,
{0.995025, -0.613509} ,
{0.995025, 0.613509} ,
{0.995025, 0.614271} ,
{0.995025, -0.614271} ,
{0.995025, 0.614652} ,
{0.995025, -0.614652} 
};

