#define Korder 115 
float A1[Korder][2] = { 
{-0.000000, 0.717815} ,
{0.296932, 0.725114} ,
{-0.296932, 0.725114} ,
{-0.574862, 0.744865} ,
{0.574862, 0.744865} ,
{0.820392, 0.772063} ,
{-0.820392, 0.772063} ,
{1.027877, 0.801581} ,
{-1.027877, 0.801581} ,
{1.198025, 0.829856} ,
{-1.198025, 0.829856} ,
{1.335141, 0.855085} ,
{-1.335141, 0.855085} ,
{-1.444780, 0.876712} ,
{1.444780, 0.876712} ,
{1.532356, 0.894858} ,
{-1.532356, 0.894858} ,
{1.602545, 0.909931} ,
{-1.602545, 0.909931} ,
{1.659138, 0.922414} ,
{-1.659138, 0.922414} ,
{-1.705112, 0.932766} ,
{1.705112, 0.932766} ,
{1.742765, 0.941382} ,
{-1.742765, 0.941382} ,
{-1.773864, 0.948591} ,
{1.773864, 0.948591} ,
{-1.799762, 0.954658} ,
{1.799762, 0.954658} ,
{-1.821502, 0.959797} ,
{1.821502, 0.959797} ,
{-1.839892, 0.964177} ,
{1.839892, 0.964177} ,
{1.855559, 0.967933} ,
{-1.855559, 0.967933} ,
{1.868997, 0.971175} ,
{-1.868997, 0.971175} ,
{1.880595, 0.973988} ,
{-1.880595, 0.973988} ,
{-1.890666, 0.976444} ,
{1.890666, 0.976444} ,
{-1.899457, 0.978598} ,
{1.899457, 0.978598} ,
{1.907171, 0.980498} ,
{-1.907171, 0.980498} ,
{1.913972, 0.982182} ,
{-1.913972, 0.982182} ,
{1.919994, 0.983681} ,
{-1.919994, 0.983681} ,
{-1.925348, 0.985021} ,
{1.925348, 0.985021} ,
{1.930127, 0.986224} ,
{-1.930127, 0.986224} ,
{1.934408, 0.987309} ,
{-1.934408, 0.987309} ,
{1.938254, 0.988290} ,
{-1.938254, 0.988290} ,
{1.941722, 0.989181} ,
{-1.941722, 0.989181} ,
{1.944856, 0.989993} ,
{-1.944856, 0.989993} ,
{-1.947696, 0.990736} ,
{1.947696, 0.990736} ,
{1.950276, 0.991417} ,
{-1.950276, 0.991417} ,
{1.952626, 0.992045} ,
{-1.952626, 0.992045} ,
{1.954769, 0.992624} ,
{-1.954769, 0.992624} ,
{-1.956728, 0.993160} ,
{1.956728, 0.993160} ,
{1.958521, 0.993659} ,
{-1.958521, 0.993659} ,
{1.960164, 0.994124} ,
{-1.960164, 0.994124} ,
{1.961673, 0.994558} ,
{-1.961673, 0.994558} ,
{1.963060, 0.994966} ,
{-1.963060, 0.994966} ,
{1.964335, 0.995349} ,
{-1.964335, 0.995349} ,
{-1.965509, 0.995710} ,
{1.965509, 0.995710} ,
{1.966590, 0.996052} ,
{-1.966590, 0.996052} ,
{1.967585, 0.996377} ,
{-1.967585, 0.996377} ,
{-1.968502, 0.996686} ,
{1.968502, 0.996686} ,
{-1.969346, 0.996981} ,
{1.969346, 0.996981} ,
{-1.970123, 0.997263} ,
{1.970123, 0.997263} ,
{1.970838, 0.997535} ,
{-1.970838, 0.997535} ,
{1.971493, 0.997797} ,
{-1.971493, 0.997797} ,
{1.972095, 0.998050} ,
{-1.972095, 0.998050} ,
{1.972644, 0.998296} ,
{-1.972644, 0.998296} ,
{1.973145, 0.998536} ,
{-1.973145, 0.998536} ,
{1.973601, 0.998770} ,
{-1.973601, 0.998770} ,
{-1.974012, 0.999000} ,
{1.974012, 0.999000} ,
{1.974382, 0.999226} ,
{-1.974382, 0.999226} ,
{-1.974711, 0.999449} ,
{1.974711, 0.999449} ,
{1.975002, 0.999670} ,
{-1.975002, 0.999670} ,
{1.975255, 0.999890} ,
{-1.975255, 0.999890} 
};

float B1[Korder][3] = { 
{0.976848, -0.000000} ,
{0.976848, 0.331867} ,
{0.976848, -0.331867} ,
{0.976848, -0.636534} ,
{0.976848, 0.636534} ,
{0.976848, 0.896693} ,
{0.976848, -0.896693} ,
{0.976848, 1.107589} ,
{0.976848, -1.107589} ,
{0.976848, 1.273278} ,
{0.976848, -1.273278} ,
{0.976848, 1.401557} ,
{0.976848, -1.401557} ,
{0.976848, -1.500567} ,
{0.976848, 1.500567} ,
{0.976848, 1.577304} ,
{0.976848, -1.577304} ,
{0.976848, 1.637268} ,
{0.976848, -1.637268} ,
{0.976848, 1.684609} ,
{0.976848, -1.684609} ,
{0.976848, -1.722399} ,
{0.976848, 1.722399} ,
{0.976848, 1.752901} ,
{0.976848, -1.752901} ,
{0.976848, -1.777787} ,
{0.976848, 1.777787} ,
{0.976848, -1.798298} ,
{0.976848, 1.798298} ,
{0.976848, -1.815365} ,
{0.976848, 1.815365} ,
{0.976848, -1.829693} ,
{0.976848, 1.829693} ,
{0.976848, 1.841820} ,
{0.976848, -1.841820} ,
{0.976848, 1.852162} ,
{0.976848, -1.852162} ,
{0.976848, 1.861043} ,
{0.976848, -1.861043} ,
{0.976848, -1.868718} ,
{0.976848, 1.868718} ,
{0.976848, -1.875391} ,
{0.976848, 1.875391} ,
{0.976848, 1.881223} ,
{0.976848, -1.881223} ,
{0.976848, 1.886346} ,
{0.976848, -1.886346} ,
{0.976848, 1.890867} ,
{0.976848, -1.890867} ,
{0.976848, -1.894873} ,
{0.976848, 1.894873} ,
{0.976848, 1.898436} ,
{0.976848, -1.898436} ,
{0.976848, 1.901617} ,
{0.976848, -1.901617} ,
{0.976848, 1.904466} ,
{0.976848, -1.904466} ,
{0.976848, 1.907025} ,
{0.976848, -1.907025} ,
{0.976848, 1.909329} ,
{0.976848, -1.909329} ,
{0.976848, -1.911409} ,
{0.976848, 1.911409} ,
{0.976848, 1.913290} ,
{0.976848, -1.913290} ,
{0.976848, 1.914995} ,
{0.976848, -1.914995} ,
{0.976848, 1.916543} ,
{0.976848, -1.916543} ,
{0.976848, -1.917949} ,
{0.976848, 1.917949} ,
{0.976848, 1.919229} ,
{0.976848, -1.919229} ,
{0.976848, 1.920395} ,
{0.976848, -1.920395} ,
{0.976848, 1.921456} ,
{0.976848, -1.921456} ,
{0.976848, 1.922423} ,
{0.976848, -1.922423} ,
{0.976848, 1.923304} ,
{0.976848, -1.923304} ,
{0.976848, -1.924106} ,
{0.976848, 1.924106} ,
{0.976848, 1.924836} ,
{0.976848, -1.924836} ,
{0.976848, 1.925498} ,
{0.976848, -1.925498} ,
{0.976848, -1.926098} ,
{0.976848, 1.926098} ,
{0.976848, -1.926640} ,
{0.976848, 1.926640} ,
{0.976848, -1.927128} ,
{0.976848, 1.927128} ,
{0.976848, 1.927566} ,
{0.976848, -1.927566} ,
{0.976848, 1.927955} ,
{0.976848, -1.927955} ,
{0.976848, 1.928298} ,
{0.976848, -1.928298} ,
{0.976848, 1.928599} ,
{0.976848, -1.928599} ,
{0.976848, 1.928858} ,
{0.976848, -1.928858} ,
{0.976848, 1.929077} ,
{0.976848, -1.929077} ,
{0.976848, -1.929258} ,
{0.976848, 1.929258} ,
{0.976848, 1.929401} ,
{0.976848, -1.929401} ,
{0.976848, -1.929508} ,
{0.976848, 1.929508} ,
{0.976848, 1.929579} ,
{0.976848, -1.929579} ,
{0.976848, 1.929614} ,
{0.976848, -1.929614} 
};

float A2[Korder][2] = { 
{-0.000000, 0.851724} ,
{-0.155672, 0.852745} ,
{0.155672, 0.852745} ,
{-0.308461, 0.855725} ,
{0.308461, 0.855725} ,
{0.455741, 0.860436} ,
{-0.455741, 0.860436} ,
{0.595357, 0.866544} ,
{-0.595357, 0.866544} ,
{-0.725738, 0.873664} ,
{0.725738, 0.873664} ,
{0.845928, 0.881414} ,
{-0.845928, 0.881414} ,
{0.955533, 0.889450} ,
{-0.955533, 0.889450} ,
{-1.054621, 0.897493} ,
{1.054621, 0.897493} ,
{1.143601, 0.905330} ,
{-1.143601, 0.905330} ,
{-1.223112, 0.912816} ,
{1.223112, 0.912816} ,
{1.293920, 0.919858} ,
{-1.293920, 0.919858} ,
{1.356845, 0.926409} ,
{-1.356845, 0.926409} ,
{1.412708, 0.932453} ,
{-1.412708, 0.932453} ,
{-1.462291, 0.937995} ,
{1.462291, 0.937995} ,
{-1.506323, 0.943058} ,
{1.506323, 0.943058} ,
{-1.545465, 0.947669} ,
{1.545465, 0.947669} ,
{1.580308, 0.951862} ,
{-1.580308, 0.951862} ,
{-1.611378, 0.955673} ,
{1.611378, 0.955673} ,
{1.639136, 0.959136} ,
{-1.639136, 0.959136} ,
{-1.663984, 0.962285} ,
{1.663984, 0.962285} ,
{1.686275, 0.965150} ,
{-1.686275, 0.965150} ,
{1.706314, 0.967761} ,
{-1.706314, 0.967761} ,
{-1.724368, 0.970143} ,
{1.724368, 0.970143} ,
{-1.740667, 0.972320} ,
{1.740667, 0.972320} ,
{1.755412, 0.974314} ,
{-1.755412, 0.974314} ,
{1.768778, 0.976142} ,
{-1.768778, 0.976142} ,
{1.780916, 0.977823} ,
{-1.780916, 0.977823} ,
{-1.791961, 0.979372} ,
{1.791961, 0.979372} ,
{1.802026, 0.980801} ,
{-1.802026, 0.980801} ,
{-1.811215, 0.982123} ,
{1.811215, 0.982123} ,
{1.819615, 0.983349} ,
{-1.819615, 0.983349} ,
{-1.827305, 0.984488} ,
{1.827305, 0.984488} ,
{-1.834354, 0.985549} ,
{1.834354, 0.985549} ,
{1.840822, 0.986539} ,
{-1.840822, 0.986539} ,
{-1.846762, 0.987465} ,
{1.846762, 0.987465} ,
{-1.852222, 0.988334} ,
{1.852222, 0.988334} ,
{1.857244, 0.989151} ,
{-1.857244, 0.989151} ,
{-1.861865, 0.989920} ,
{1.861865, 0.989920} ,
{-1.866117, 0.990647} ,
{1.866117, 0.990647} ,
{1.870031, 0.991335} ,
{-1.870031, 0.991335} ,
{-1.873633, 0.991988} ,
{1.873633, 0.991988} ,
{1.876945, 0.992610} ,
{-1.876945, 0.992610} ,
{1.879989, 0.993203} ,
{-1.879989, 0.993203} ,
{-1.882784, 0.993771} ,
{1.882784, 0.993771} ,
{-1.885344, 0.994316} ,
{1.885344, 0.994316} ,
{1.887687, 0.994840} ,
{-1.887687, 0.994840} ,
{1.889823, 0.995345} ,
{-1.889823, 0.995345} ,
{-1.891766, 0.995835} ,
{1.891766, 0.995835} ,
{1.893525, 0.996310} ,
{-1.893525, 0.996310} ,
{-1.895110, 0.996772} ,
{1.895110, 0.996772} ,
{-1.896528, 0.997223} ,
{1.896528, 0.997223} ,
{1.897787, 0.997666} ,
{-1.897787, 0.997666} ,
{-1.898892, 0.998100} ,
{1.898892, 0.998100} ,
{1.899849, 0.998529} ,
{-1.899849, 0.998529} ,
{1.900661, 0.998952} ,
{-1.900661, 0.998952} ,
{-1.901333, 0.999373} ,
{1.901333, 0.999373} ,
{-1.901867, 0.999791} ,
{1.901867, 0.999791} 
};

float B2[Korder][3] = { 
{0.979395, -0.000000} ,
{0.979395, -0.164007} ,
{0.979395, 0.164007} ,
{0.979395, -0.324500} ,
{0.979395, 0.324500} ,
{0.979395, 0.478329} ,
{0.979395, -0.478329} ,
{0.979395, 0.622990} ,
{0.979395, -0.622990} ,
{0.979395, -0.756763} ,
{0.979395, 0.756763} ,
{0.979395, 0.878727} ,
{0.979395, -0.878727} ,
{0.979395, 0.988650} ,
{0.979395, -0.988650} ,
{0.979395, -1.086842} ,
{0.979395, 1.086842} ,
{0.979395, 1.173979} ,
{0.979395, -1.173979} ,
{0.979395, -1.250954} ,
{0.979395, 1.250954} ,
{0.979395, 1.318761} ,
{0.979395, -1.318761} ,
{0.979395, 1.378408} ,
{0.979395, -1.378408} ,
{0.979395, 1.430859} ,
{0.979395, -1.430859} ,
{0.979395, -1.477008} ,
{0.979395, 1.477008} ,
{0.979395, -1.517660} ,
{0.979395, 1.517660} ,
{0.979395, -1.553532} ,
{0.979395, 1.553532} ,
{0.979395, 1.585249} ,
{0.979395, -1.585249} ,
{0.979395, -1.613355} ,
{0.979395, 1.613355} ,
{0.979395, 1.638322} ,
{0.979395, -1.638322} ,
{0.979395, -1.660555} ,
{0.979395, 1.660555} ,
{0.979395, 1.680402} ,
{0.979395, -1.680402} ,
{0.979395, 1.698164} ,
{0.979395, -1.698164} ,
{0.979395, -1.714097} ,
{0.979395, 1.714097} ,
{0.979395, -1.728425} ,
{0.979395, 1.728425} ,
{0.979395, 1.741338} ,
{0.979395, -1.741338} ,
{0.979395, 1.752999} ,
{0.979395, -1.752999} ,
{0.979395, 1.763553} ,
{0.979395, -1.763553} ,
{0.979395, -1.773122} ,
{0.979395, 1.773122} ,
{0.979395, 1.781813} ,
{0.979395, -1.781813} ,
{0.979395, -1.789720} ,
{0.979395, 1.789720} ,
{0.979395, 1.796923} ,
{0.979395, -1.796923} ,
{0.979395, -1.803494} ,
{0.979395, 1.803494} ,
{0.979395, -1.809494} ,
{0.979395, 1.809494} ,
{0.979395, 1.814979} ,
{0.979395, -1.814979} ,
{0.979395, -1.819996} ,
{0.979395, 1.819996} ,
{0.979395, -1.824587} ,
{0.979395, 1.824587} ,
{0.979395, 1.828789} ,
{0.979395, -1.828789} ,
{0.979395, -1.832636} ,
{0.979395, 1.832636} ,
{0.979395, -1.836157} ,
{0.979395, 1.836157} ,
{0.979395, 1.839377} ,
{0.979395, -1.839377} ,
{0.979395, -1.842320} ,
{0.979395, 1.842320} ,
{0.979395, 1.845005} ,
{0.979395, -1.845005} ,
{0.979395, 1.847450} ,
{0.979395, -1.847450} ,
{0.979395, -1.849673} ,
{0.979395, 1.849673} ,
{0.979395, -1.851685} ,
{0.979395, 1.851685} ,
{0.979395, 1.853501} ,
{0.979395, -1.853501} ,
{0.979395, 1.855131} ,
{0.979395, -1.855131} ,
{0.979395, -1.856585} ,
{0.979395, 1.856585} ,
{0.979395, 1.857871} ,
{0.979395, -1.857871} ,
{0.979395, -1.858997} ,
{0.979395, 1.858997} ,
{0.979395, -1.859968} ,
{0.979395, 1.859968} ,
{0.979395, 1.860792} ,
{0.979395, -1.860792} ,
{0.979395, -1.861471} ,
{0.979395, 1.861471} ,
{0.979395, 1.862011} ,
{0.979395, -1.862011} ,
{0.979395, 1.862412} ,
{0.979395, -1.862412} ,
{0.979395, -1.862679} ,
{0.979395, 1.862679} ,
{0.979395, -1.862812} ,
{0.979395, 1.862812} 
};

float A3[Korder][2] = { 
{-0.000000, 0.930855} ,
{0.072579, 0.930975} ,
{-0.072579, 0.930975} ,
{0.144824, 0.931330} ,
{-0.144824, 0.931330} ,
{-0.216407, 0.931915} ,
{0.216407, 0.931915} ,
{0.287017, 0.932719} ,
{-0.287017, 0.932719} ,
{0.356363, 0.933727} ,
{-0.356363, 0.933727} ,
{-0.424179, 0.934924} ,
{0.424179, 0.934924} ,
{0.490232, 0.936288} ,
{-0.490232, 0.936288} ,
{0.554319, 0.937801} ,
{-0.554319, 0.937801} ,
{0.616274, 0.939438} ,
{-0.616274, 0.939438} ,
{0.675967, 0.941180} ,
{-0.675967, 0.941180} ,
{0.733297, 0.943005} ,
{-0.733297, 0.943005} ,
{0.788200, 0.944891} ,
{-0.788200, 0.944891} ,
{-0.840640, 0.946822} ,
{0.840640, 0.946822} ,
{0.890606, 0.948778} ,
{-0.890606, 0.948778} ,
{-0.938113, 0.950744} ,
{0.938113, 0.950744} ,
{-0.983192, 0.952708} ,
{0.983192, 0.952708} ,
{1.025895, 0.954656} ,
{-1.025895, 0.954656} ,
{1.066285, 0.956580} ,
{-1.066285, 0.956580} ,
{1.104435, 0.958470} ,
{-1.104435, 0.958470} ,
{1.140427, 0.960320} ,
{-1.140427, 0.960320} ,
{-1.174347, 0.962124} ,
{1.174347, 0.962124} ,
{-1.206287, 0.963880} ,
{1.206287, 0.963880} ,
{1.236337, 0.965584} ,
{-1.236337, 0.965584} ,
{1.264591, 0.967234} ,
{-1.264591, 0.967234} ,
{1.291139, 0.968829} ,
{-1.291139, 0.968829} ,
{-1.316072, 0.970370} ,
{1.316072, 0.970370} ,
{1.339476, 0.971855} ,
{-1.339476, 0.971855} ,
{1.361434, 0.973287} ,
{-1.361434, 0.973287} ,
{-1.382028, 0.974665} ,
{1.382028, 0.974665} ,
{-1.401334, 0.975993} ,
{1.401334, 0.975993} ,
{-1.419424, 0.977270} ,
{1.419424, 0.977270} ,
{-1.436368, 0.978500} ,
{1.436368, 0.978500} ,
{-1.452229, 0.979684} ,
{1.452229, 0.979684} ,
{-1.467070, 0.980825} ,
{1.467070, 0.980825} ,
{1.480947, 0.981924} ,
{-1.480947, 0.981924} ,
{1.493912, 0.982983} ,
{-1.493912, 0.982983} ,
{-1.506016, 0.984005} ,
{1.506016, 0.984005} ,
{-1.517305, 0.984993} ,
{1.517305, 0.984993} ,
{1.527821, 0.985947} ,
{-1.527821, 0.985947} ,
{-1.537605, 0.986870} ,
{1.537605, 0.986870} ,
{-1.546692, 0.987765} ,
{1.546692, 0.987765} ,
{-1.555116, 0.988633} ,
{1.555116, 0.988633} ,
{-1.562908, 0.989476} ,
{1.562908, 0.989476} ,
{1.570097, 0.990296} ,
{-1.570097, 0.990296} ,
{1.576709, 0.991095} ,
{-1.576709, 0.991095} ,
{-1.582767, 0.991875} ,
{1.582767, 0.991875} ,
{1.588293, 0.992638} ,
{-1.588293, 0.992638} ,
{1.593306, 0.993385} ,
{-1.593306, 0.993385} ,
{1.597824, 0.994117} ,
{-1.597824, 0.994117} ,
{1.601861, 0.994838} ,
{-1.601861, 0.994838} ,
{-1.605432, 0.995547} ,
{1.605432, 0.995547} ,
{-1.608549, 0.996247} ,
{1.608549, 0.996247} ,
{1.611221, 0.996940} ,
{-1.611221, 0.996940} ,
{-1.613458, 0.997626} ,
{1.613458, 0.997626} ,
{-1.615265, 0.998307} ,
{1.615265, 0.998307} ,
{-1.616649, 0.998986} ,
{1.616649, 0.998986} ,
{-1.617614, 0.999662} ,
{1.617614, 0.999662} 
};

float B3[Korder][3] = { 
{0.984507, -0.000000} ,
{0.984507, 0.073937} ,
{0.984507, -0.073937} ,
{0.984507, 0.147507} ,
{0.984507, -0.147507} ,
{0.984507, -0.220352} ,
{0.984507, 0.220352} ,
{0.984507, 0.292134} ,
{0.984507, -0.292134} ,
{0.984507, 0.362534} ,
{0.984507, -0.362534} ,
{0.984507, -0.431270} ,
{0.984507, 0.431270} ,
{0.984507, 0.498089} ,
{0.984507, -0.498089} ,
{0.984507, 0.562783} ,
{0.984507, -0.562783} ,
{0.984507, 0.625177} ,
{0.984507, -0.625177} ,
{0.984507, 0.685140} ,
{0.984507, -0.685140} ,
{0.984507, 0.742578} ,
{0.984507, -0.742578} ,
{0.984507, 0.797430} ,
{0.984507, -0.797430} ,
{0.984507, -0.849671} ,
{0.984507, 0.849671} ,
{0.984507, 0.899303} ,
{0.984507, -0.899303} ,
{0.984507, -0.946350} ,
{0.984507, 0.946350} ,
{0.984507, -0.990861} ,
{0.984507, 0.990861} ,
{0.984507, 1.032900} ,
{0.984507, -1.032900} ,
{0.984507, 1.072542} ,
{0.984507, -1.072542} ,
{0.984507, 1.109876} ,
{0.984507, -1.109876} ,
{0.984507, 1.144994} ,
{0.984507, -1.144994} ,
{0.984507, -1.177995} ,
{0.984507, 1.177995} ,
{0.984507, -1.208981} ,
{0.984507, 1.208981} ,
{0.984507, 1.238052} ,
{0.984507, -1.238052} ,
{0.984507, 1.265308} ,
{0.984507, -1.265308} ,
{0.984507, 1.290850} ,
{0.984507, -1.290850} ,
{0.984507, -1.314771} ,
{0.984507, 1.314771} ,
{0.984507, 1.337166} ,
{0.984507, -1.337166} ,
{0.984507, 1.358121} ,
{0.984507, -1.358121} ,
{0.984507, -1.377721} ,
{0.984507, 1.377721} ,
{0.984507, -1.396047} ,
{0.984507, 1.396047} ,
{0.984507, -1.413172} ,
{0.984507, 1.413172} ,
{0.984507, -1.429168} ,
{0.984507, 1.429168} ,
{0.984507, -1.444100} ,
{0.984507, 1.444100} ,
{0.984507, -1.458032} ,
{0.984507, 1.458032} ,
{0.984507, 1.471019} ,
{0.984507, -1.471019} ,
{0.984507, 1.483117} ,
{0.984507, -1.483117} ,
{0.984507, -1.494374} ,
{0.984507, 1.494374} ,
{0.984507, -1.504837} ,
{0.984507, 1.504837} ,
{0.984507, 1.514548} ,
{0.984507, -1.514548} ,
{0.984507, -1.523546} ,
{0.984507, 1.523546} ,
{0.984507, -1.531868} ,
{0.984507, 1.531868} ,
{0.984507, -1.539546} ,
{0.984507, 1.539546} ,
{0.984507, -1.546612} ,
{0.984507, 1.546612} ,
{0.984507, 1.553092} ,
{0.984507, -1.553092} ,
{0.984507, 1.559011} ,
{0.984507, -1.559011} ,
{0.984507, -1.564393} ,
{0.984507, 1.564393} ,
{0.984507, 1.569259} ,
{0.984507, -1.569259} ,
{0.984507, 1.573626} ,
{0.984507, -1.573626} ,
{0.984507, 1.577511} ,
{0.984507, -1.577511} ,
{0.984507, 1.580930} ,
{0.984507, -1.580930} ,
{0.984507, -1.583894} ,
{0.984507, 1.583894} ,
{0.984507, -1.586414} ,
{0.984507, 1.586414} ,
{0.984507, 1.588500} ,
{0.984507, -1.588500} ,
{0.984507, -1.590160} ,
{0.984507, 1.590160} ,
{0.984507, -1.591400} ,
{0.984507, 1.591400} ,
{0.984507, -1.592224} ,
{0.984507, 1.592224} ,
{0.984507, -1.592635} ,
{0.984507, 1.592635} 
};

float A4[Korder][2] = { 
{0.000000, 0.983234} ,
{-0.017598, 0.983242} ,
{0.017598, 0.983242} ,
{0.035180, 0.983264} ,
{-0.035180, 0.983264} ,
{-0.052728, 0.983302} ,
{0.052728, 0.983302} ,
{0.070225, 0.983354} ,
{-0.070225, 0.983354} ,
{-0.087655, 0.983421} ,
{0.087655, 0.983421} ,
{0.105002, 0.983503} ,
{-0.105002, 0.983503} ,
{0.122249, 0.983599} ,
{-0.122249, 0.983599} ,
{0.139380, 0.983710} ,
{-0.139380, 0.983710} ,
{0.156379, 0.983835} ,
{-0.156379, 0.983835} ,
{-0.173232, 0.983973} ,
{0.173232, 0.983973} ,
{0.189922, 0.984125} ,
{-0.189922, 0.984125} ,
{0.206436, 0.984291} ,
{-0.206436, 0.984291} ,
{0.222759, 0.984469} ,
{-0.222759, 0.984469} ,
{0.238877, 0.984660} ,
{-0.238877, 0.984660} ,
{0.254776, 0.984863} ,
{-0.254776, 0.984863} ,
{-0.270445, 0.985079} ,
{0.270445, 0.985079} ,
{0.285870, 0.985306} ,
{-0.285870, 0.985306} ,
{0.301039, 0.985544} ,
{-0.301039, 0.985544} ,
{0.315942, 0.985793} ,
{-0.315942, 0.985793} ,
{-0.330567, 0.986052} ,
{0.330567, 0.986052} ,
{0.344903, 0.986322} ,
{-0.344903, 0.986322} ,
{0.358942, 0.986601} ,
{-0.358942, 0.986601} ,
{0.372673, 0.986889} ,
{-0.372673, 0.986889} ,
{0.386087, 0.987187} ,
{-0.386087, 0.987187} ,
{-0.399177, 0.987493} ,
{0.399177, 0.987493} ,
{0.411935, 0.987806} ,
{-0.411935, 0.987806} ,
{-0.424352, 0.988128} ,
{0.424352, 0.988128} ,
{0.436423, 0.988457} ,
{-0.436423, 0.988457} ,
{0.448141, 0.988793} ,
{-0.448141, 0.988793} ,
{-0.459500, 0.989135} ,
{0.459500, 0.989135} ,
{-0.470494, 0.989484} ,
{0.470494, 0.989484} ,
{0.481118, 0.989838} ,
{-0.481118, 0.989838} ,
{0.491368, 0.990198} ,
{-0.491368, 0.990198} ,
{-0.501239, 0.990563} ,
{0.501239, 0.990563} ,
{0.510727, 0.990933} ,
{-0.510727, 0.990933} ,
{-0.519828, 0.991307} ,
{0.519828, 0.991307} ,
{-0.528540, 0.991686} ,
{0.528540, 0.991686} ,
{0.536859, 0.992069} ,
{-0.536859, 0.992069} ,
{0.544783, 0.992455} ,
{-0.544783, 0.992455} ,
{0.552308, 0.992845} ,
{-0.552308, 0.992845} ,
{-0.559433, 0.993238} ,
{0.559433, 0.993238} ,
{0.566156, 0.993634} ,
{-0.566156, 0.993634} ,
{-0.572475, 0.994032} ,
{0.572475, 0.994032} ,
{0.578387, 0.994433} ,
{-0.578387, 0.994433} ,
{-0.583893, 0.994837} ,
{0.583893, 0.994837} ,
{0.588989, 0.995242} ,
{-0.588989, 0.995242} ,
{0.593677, 0.995649} ,
{-0.593677, 0.995649} ,
{-0.597953, 0.996058} ,
{0.597953, 0.996058} ,
{0.601817, 0.996469} ,
{-0.601817, 0.996469} ,
{0.605269, 0.996881} ,
{-0.605269, 0.996881} ,
{0.608307, 0.997294} ,
{-0.608307, 0.997294} ,
{0.610932, 0.997709} ,
{-0.610932, 0.997709} ,
{0.613141, 0.998124} ,
{-0.613141, 0.998124} ,
{0.614936, 0.998540} ,
{-0.614936, 0.998540} ,
{-0.616314, 0.998956} ,
{0.616314, 0.998956} ,
{-0.617277, 0.999374} ,
{0.617277, 0.999374} ,
{0.617823, 0.999791} ,
{-0.617823, 0.999791} 
};

float B4[Korder][3] = { 
{0.994810, 0.000000} ,
{0.994810, -0.017648} ,
{0.994810, 0.017648} ,
{0.994810, 0.035280} ,
{0.994810, -0.035280} ,
{0.994810, -0.052876} ,
{0.994810, 0.052876} ,
{0.994810, 0.070421} ,
{0.994810, -0.070421} ,
{0.994810, -0.087897} ,
{0.994810, 0.087897} ,
{0.994810, 0.105287} ,
{0.994810, -0.105287} ,
{0.994810, 0.122574} ,
{0.994810, -0.122574} ,
{0.994810, 0.139743} ,
{0.994810, -0.139743} ,
{0.994810, 0.156777} ,
{0.994810, -0.156777} ,
{0.994810, -0.173661} ,
{0.994810, 0.173661} ,
{0.994810, 0.190378} ,
{0.994810, -0.190378} ,
{0.994810, 0.206914} ,
{0.994810, -0.206914} ,
{0.994810, 0.223255} ,
{0.994810, -0.223255} ,
{0.994810, 0.239386} ,
{0.994810, -0.239386} ,
{0.994810, 0.255294} ,
{0.994810, -0.255294} ,
{0.994810, -0.270966} ,
{0.994810, 0.270966} ,
{0.994810, 0.286388} ,
{0.994810, -0.286388} ,
{0.994810, 0.301550} ,
{0.994810, -0.301550} ,
{0.994810, 0.316438} ,
{0.994810, -0.316438} ,
{0.994810, -0.331043} ,
{0.994810, 0.331043} ,
{0.994810, 0.345354} ,
{0.994810, -0.345354} ,
{0.994810, 0.359361} ,
{0.994810, -0.359361} ,
{0.994810, 0.373055} ,
{0.994810, -0.373055} ,
{0.994810, 0.386426} ,
{0.994810, -0.386426} ,
{0.994810, -0.399467} ,
{0.994810, 0.399467} ,
{0.994810, 0.412169} ,
{0.994810, -0.412169} ,
{0.994810, -0.424526} ,
{0.994810, 0.424526} ,
{0.994810, 0.436530} ,
{0.994810, -0.436530} ,
{0.994810, 0.448176} ,
{0.994810, -0.448176} ,
{0.994810, -0.459457} ,
{0.994810, 0.459457} ,
{0.994810, -0.470369} ,
{0.994810, 0.470369} ,
{0.994810, 0.480905} ,
{0.994810, -0.480905} ,
{0.994810, 0.491063} ,
{0.994810, -0.491063} ,
{0.994810, -0.500836} ,
{0.994810, 0.500836} ,
{0.994810, 0.510223} ,
{0.994810, -0.510223} ,
{0.994810, -0.519219} ,
{0.994810, 0.519219} ,
{0.994810, -0.527821} ,
{0.994810, 0.527821} ,
{0.994810, 0.536027} ,
{0.994810, -0.536027} ,
{0.994810, 0.543833} ,
{0.994810, -0.543833} ,
{0.994810, 0.551238} ,
{0.994810, -0.551238} ,
{0.994810, -0.558240} ,
{0.994810, 0.558240} ,
{0.994810, 0.564837} ,
{0.994810, -0.564837} ,
{0.994810, -0.571028} ,
{0.994810, 0.571028} ,
{0.994810, 0.576810} ,
{0.994810, -0.576810} ,
{0.994810, -0.582183} ,
{0.994810, 0.582183} ,
{0.994810, 0.587147} ,
{0.994810, -0.587147} ,
{0.994810, 0.591699} ,
{0.994810, -0.591699} ,
{0.994810, -0.595839} ,
{0.994810, 0.595839} ,
{0.994810, 0.599567} ,
{0.994810, -0.599567} ,
{0.994810, 0.602882} ,
{0.994810, -0.602882} ,
{0.994810, 0.605783} ,
{0.994810, -0.605783} ,
{0.994810, 0.608271} ,
{0.994810, -0.608271} ,
{0.994810, 0.610344} ,
{0.994810, -0.610344} ,
{0.994810, 0.612003} ,
{0.994810, -0.612003} ,
{0.994810, -0.613247} ,
{0.994810, 0.613247} ,
{0.994810, -0.614077} ,
{0.994810, 0.614077} ,
{0.994810, 0.614492} ,
{0.994810, -0.614492} 
};

