#define Korder 100 
float A1[Korder][2] = { 
{-0.169235, 0.684980} ,
{0.169235, 0.684980} ,
{0.493467, 0.705211} ,
{-0.493467, 0.705211} ,
{-0.780536, 0.738600} ,
{0.780536, 0.738600} ,
{-1.019678, 0.776383} ,
{1.019678, 0.776383} ,
{1.211057, 0.812405} ,
{-1.211057, 0.812405} ,
{1.360892, 0.843817} ,
{-1.360892, 0.843817} ,
{-1.477213, 0.869968} ,
{1.477213, 0.869968} ,
{1.567556, 0.891267} ,
{-1.567556, 0.891267} ,
{1.638135, 0.908471} ,
{-1.638135, 0.908471} ,
{-1.693759, 0.922365} ,
{1.693759, 0.922365} ,
{1.738047, 0.933632} ,
{-1.738047, 0.933632} ,
{1.773685, 0.942829} ,
{-1.773685, 0.942829} ,
{-1.802669, 0.950394} ,
{1.802669, 0.950394} ,
{1.826481, 0.956667} ,
{-1.826481, 0.956667} ,
{1.846232, 0.961912} ,
{-1.846232, 0.961912} ,
{1.862763, 0.966333} ,
{-1.862763, 0.966333} ,
{-1.876714, 0.970086} ,
{1.876714, 0.970086} ,
{1.888580, 0.973298} ,
{-1.888580, 0.973298} ,
{-1.898745, 0.976064} ,
{1.898745, 0.976064} ,
{-1.907509, 0.978463} ,
{1.907509, 0.978463} ,
{1.915112, 0.980556} ,
{-1.915112, 0.980556} ,
{1.921744, 0.982393} ,
{-1.921744, 0.982393} ,
{-1.927560, 0.984014} ,
{1.927560, 0.984014} ,
{1.932684, 0.985452} ,
{-1.932684, 0.985452} ,
{-1.937218, 0.986734} ,
{1.937218, 0.986734} ,
{-1.941246, 0.987883} ,
{1.941246, 0.987883} ,
{-1.944837, 0.988917} ,
{1.944837, 0.988917} ,
{-1.948050, 0.989852} ,
{1.948050, 0.989852} ,
{1.950934, 0.990701} ,
{-1.950934, 0.990701} ,
{-1.953529, 0.991475} ,
{1.953529, 0.991475} ,
{-1.955871, 0.992184} ,
{1.955871, 0.992184} ,
{-1.957988, 0.992836} ,
{1.957988, 0.992836} ,
{1.959906, 0.993437} ,
{-1.959906, 0.993437} ,
{1.961646, 0.993994} ,
{-1.961646, 0.993994} ,
{-1.963228, 0.994513} ,
{1.963228, 0.994513} ,
{-1.964668, 0.994998} ,
{1.964668, 0.994998} ,
{1.965979, 0.995452} ,
{-1.965979, 0.995452} ,
{-1.967173, 0.995880} ,
{1.967173, 0.995880} ,
{1.968262, 0.996284} ,
{-1.968262, 0.996284} ,
{1.969254, 0.996668} ,
{-1.969254, 0.996668} ,
{1.970158, 0.997035} ,
{-1.970158, 0.997035} ,
{-1.970980, 0.997385} ,
{1.970980, 0.997385} ,
{-1.971727, 0.997722} ,
{1.971727, 0.997722} ,
{1.972404, 0.998048} ,
{-1.972404, 0.998048} ,
{-1.973015, 0.998364} ,
{1.973015, 0.998364} ,
{1.973565, 0.998672} ,
{-1.973565, 0.998672} ,
{-1.974058, 0.998974} ,
{1.974058, 0.998974} ,
{-1.974496, 0.999270} ,
{1.974496, 0.999270} ,
{1.974881, 0.999563} ,
{-1.974881, 0.999563} ,
{-1.975216, 0.999855} ,
{1.975216, 0.999855} 
};

float B1[Korder][3] = { 
{0.973422, -0.192002} ,
{0.973422, 0.192002} ,
{0.973422, 0.554658} ,
{0.973422, -0.554658} ,
{0.973422, -0.863723} ,
{0.973422, 0.863723} ,
{0.973422, -1.108230} ,
{0.973422, 1.108230} ,
{0.973422, 1.293518} ,
{0.973422, -1.293518} ,
{0.973422, 1.431431} ,
{0.973422, -1.431431} ,
{0.973422, -1.533928} ,
{0.973422, 1.533928} ,
{0.973422, 1.610705} ,
{0.973422, -1.610705} ,
{0.973422, 1.668939} ,
{0.973422, -1.668939} ,
{0.973422, -1.713747} ,
{0.973422, 1.713747} ,
{0.973422, 1.748734} ,
{0.973422, -1.748734} ,
{0.973422, 1.776445} ,
{0.973422, -1.776445} ,
{0.973422, -1.798686} ,
{0.973422, 1.798686} ,
{0.973422, 1.816758} ,
{0.973422, -1.816758} ,
{0.973422, 1.831611} ,
{0.973422, -1.831611} ,
{0.973422, 1.843945} ,
{0.973422, -1.843945} ,
{0.973422, -1.854282} ,
{0.973422, 1.854282} ,
{0.973422, 1.863021} ,
{0.973422, -1.863021} ,
{0.973422, -1.870466} ,
{0.973422, 1.870466} ,
{0.973422, -1.876853} ,
{0.973422, 1.876853} ,
{0.973422, 1.882368} ,
{0.973422, -1.882368} ,
{0.973422, 1.887158} ,
{0.973422, -1.887158} ,
{0.973422, -1.891339} ,
{0.973422, 1.891339} ,
{0.973422, 1.895007} ,
{0.973422, -1.895007} ,
{0.973422, -1.898237} ,
{0.973422, 1.898237} ,
{0.973422, -1.901095} ,
{0.973422, 1.901095} ,
{0.973422, -1.903630} ,
{0.973422, 1.903630} ,
{0.973422, -1.905886} ,
{0.973422, 1.905886} ,
{0.973422, 1.907899} ,
{0.973422, -1.907899} ,
{0.973422, -1.909699} ,
{0.973422, 1.909699} ,
{0.973422, -1.911312} ,
{0.973422, 1.911312} ,
{0.973422, -1.912758} ,
{0.973422, 1.912758} ,
{0.973422, 1.914057} ,
{0.973422, -1.914057} ,
{0.973422, 1.915224} ,
{0.973422, -1.915224} ,
{0.973422, -1.916273} ,
{0.973422, 1.916273} ,
{0.973422, -1.917214} ,
{0.973422, 1.917214} ,
{0.973422, 1.918059} ,
{0.973422, -1.918059} ,
{0.973422, -1.918814} ,
{0.973422, 1.918814} ,
{0.973422, 1.919488} ,
{0.973422, -1.919488} ,
{0.973422, 1.920088} ,
{0.973422, -1.920088} ,
{0.973422, 1.920618} ,
{0.973422, -1.920618} ,
{0.973422, -1.921083} ,
{0.973422, 1.921083} ,
{0.973422, -1.921487} ,
{0.973422, 1.921487} ,
{0.973422, 1.921834} ,
{0.973422, -1.921834} ,
{0.973422, -1.922126} ,
{0.973422, 1.922126} ,
{0.973422, 1.922366} ,
{0.973422, -1.922366} ,
{0.973422, -1.922556} ,
{0.973422, 1.922556} ,
{0.973422, -1.922698} ,
{0.973422, 1.922698} ,
{0.973422, 1.922791} ,
{0.973422, -1.922791} ,
{0.973422, -1.922838} ,
{0.973422, 1.922838} 
};

float A2[Korder][2] = { 
{-0.088804, 0.831760} ,
{0.088804, 0.831760} ,
{0.264265, 0.834755} ,
{-0.264265, 0.834755} ,
{-0.433541, 0.840440} ,
{0.433541, 0.840440} ,
{0.593283, 0.848278} ,
{-0.593283, 0.848278} ,
{-0.741100, 0.857619} ,
{0.741100, 0.857619} ,
{0.875628, 0.867817} ,
{-0.875628, 0.867817} ,
{-0.996424, 0.878309} ,
{0.996424, 0.878309} ,
{1.103769, 0.888661} ,
{-1.103769, 0.888661} ,
{1.198439, 0.898571} ,
{-1.198439, 0.898571} ,
{1.281502, 0.907854} ,
{-1.281502, 0.907854} ,
{1.354153, 0.916413} ,
{-1.354153, 0.916413} ,
{1.417602, 0.924219} ,
{-1.417602, 0.924219} ,
{1.473002, 0.931283} ,
{-1.473002, 0.931283} ,
{1.521411, 0.937645} ,
{-1.521411, 0.937645} ,
{1.563774, 0.943359} ,
{-1.563774, 0.943359} ,
{1.600919, 0.948481} ,
{-1.600919, 0.948481} ,
{-1.633565, 0.953073} ,
{1.633565, 0.953073} ,
{1.662332, 0.957191} ,
{-1.662332, 0.957191} ,
{1.687750, 0.960889} ,
{-1.687750, 0.960889} ,
{1.710269, 0.964214} ,
{-1.710269, 0.964214} ,
{1.730277, 0.967210} ,
{-1.730277, 0.967210} ,
{1.748100, 0.969917} ,
{-1.748100, 0.969917} ,
{-1.764020, 0.972367} ,
{1.764020, 0.972367} ,
{-1.778275, 0.974591} ,
{1.778275, 0.974591} ,
{1.791071, 0.976615} ,
{-1.791071, 0.976615} ,
{1.802581, 0.978463} ,
{-1.802581, 0.978463} ,
{1.812958, 0.980154} ,
{-1.812958, 0.980154} ,
{-1.822329, 0.981706} ,
{1.822329, 0.981706} ,
{1.830808, 0.983135} ,
{-1.830808, 0.983135} ,
{1.838491, 0.984455} ,
{-1.838491, 0.984455} ,
{-1.845461, 0.985677} ,
{1.845461, 0.985677} ,
{-1.851793, 0.986813} ,
{1.851793, 0.986813} ,
{-1.857548, 0.987872} ,
{1.857548, 0.987872} ,
{1.862783, 0.988862} ,
{-1.862783, 0.988862} ,
{1.867545, 0.989790} ,
{-1.867545, 0.989790} ,
{-1.871878, 0.990664} ,
{1.871878, 0.990664} ,
{1.875817, 0.991489} ,
{-1.875817, 0.991489} ,
{1.879397, 0.992271} ,
{-1.879397, 0.992271} ,
{1.882644, 0.993015} ,
{-1.882644, 0.993015} ,
{-1.885585, 0.993725} ,
{1.885585, 0.993725} ,
{1.888242, 0.994405} ,
{-1.888242, 0.994405} ,
{1.890632, 0.995059} ,
{-1.890632, 0.995059} ,
{-1.892774, 0.995690} ,
{1.892774, 0.995690} ,
{-1.894681, 0.996302} ,
{1.894681, 0.996302} ,
{1.896367, 0.996897} ,
{-1.896367, 0.996897} ,
{1.897841, 0.997479} ,
{-1.897841, 0.997479} ,
{1.899114, 0.998050} ,
{-1.899114, 0.998050} ,
{1.900192, 0.998613} ,
{-1.900192, 0.998613} ,
{-1.901081, 0.999170} ,
{1.901081, 0.999170} ,
{-1.901787, 0.999724} ,
{1.901787, 0.999724} 
};

float B2[Korder][3] = { 
{0.976341, -0.094224} ,
{0.976341, 0.094224} ,
{0.976341, 0.279984} ,
{0.976341, -0.279984} ,
{0.976341, -0.458054} ,
{0.976341, 0.458054} ,
{0.976341, 0.624427} ,
{0.976341, -0.624427} ,
{0.976341, -0.776439} ,
{0.976341, 0.776439} ,
{0.976341, 0.912795} ,
{0.976341, -0.912795} ,
{0.976341, -1.033366} ,
{0.976341, 1.033366} ,
{0.976341, 1.138859} ,
{0.976341, -1.138859} ,
{0.976341, 1.230500} ,
{0.976341, -1.230500} ,
{0.976341, 1.309757} ,
{0.976341, -1.309757} ,
{0.976341, 1.378156} ,
{0.976341, -1.378156} ,
{0.976341, 1.437159} ,
{0.976341, -1.437159} ,
{0.976341, 1.488100} ,
{0.976341, -1.488100} ,
{0.976341, 1.532159} ,
{0.976341, -1.532159} ,
{0.976341, 1.570359} ,
{0.976341, -1.570359} ,
{0.976341, 1.603575} ,
{0.976341, -1.603575} ,
{0.976341, -1.632546} ,
{0.976341, 1.632546} ,
{0.976341, 1.657898} ,
{0.976341, -1.657898} ,
{0.976341, 1.680156} ,
{0.976341, -1.680156} ,
{0.976341, 1.699762} ,
{0.976341, -1.699762} ,
{0.976341, 1.717085} ,
{0.976341, -1.717085} ,
{0.976341, 1.732439} ,
{0.976341, -1.732439} ,
{0.976341, -1.746087} ,
{0.976341, 1.746087} ,
{0.976341, -1.758251} ,
{0.976341, 1.758251} ,
{0.976341, 1.769119} ,
{0.976341, -1.769119} ,
{0.976341, 1.778852} ,
{0.976341, -1.778852} ,
{0.976341, 1.787587} ,
{0.976341, -1.787587} ,
{0.976341, -1.795439} ,
{0.976341, 1.795439} ,
{0.976341, 1.802510} ,
{0.976341, -1.802510} ,
{0.976341, 1.808885} ,
{0.976341, -1.808885} ,
{0.976341, -1.814638} ,
{0.976341, 1.814638} ,
{0.976341, -1.819834} ,
{0.976341, 1.819834} ,
{0.976341, -1.824528} ,
{0.976341, 1.824528} ,
{0.976341, 1.828768} ,
{0.976341, -1.828768} ,
{0.976341, 1.832595} ,
{0.976341, -1.832595} ,
{0.976341, -1.836047} ,
{0.976341, 1.836047} ,
{0.976341, 1.839155} ,
{0.976341, -1.839155} ,
{0.976341, 1.841946} ,
{0.976341, -1.841946} ,
{0.976341, 1.844445} ,
{0.976341, -1.844445} ,
{0.976341, -1.846673} ,
{0.976341, 1.846673} ,
{0.976341, 1.848647} ,
{0.976341, -1.848647} ,
{0.976341, 1.850384} ,
{0.976341, -1.850384} ,
{0.976341, -1.851897} ,
{0.976341, 1.851897} ,
{0.976341, -1.853197} ,
{0.976341, 1.853197} ,
{0.976341, 1.854294} ,
{0.976341, -1.854294} ,
{0.976341, 1.855197} ,
{0.976341, -1.855197} ,
{0.976341, 1.855911} ,
{0.976341, -1.855911} ,
{0.976341, 1.856443} ,
{0.976341, -1.856443} ,
{0.976341, -1.856795} ,
{0.976341, 1.856795} ,
{0.976341, -1.856970} ,
{0.976341, 1.856970} 
};

float A3[Korder][2] = { 
{0.041546, 0.920949} ,
{-0.041546, 0.920949} ,
{0.124386, 0.921306} ,
{-0.124386, 0.921306} ,
{-0.206482, 0.922013} ,
{0.206482, 0.922013} ,
{0.287361, 0.923051} ,
{-0.287361, 0.923051} ,
{0.366584, 0.924397} ,
{-0.366584, 0.924397} ,
{0.443758, 0.926021} ,
{-0.443758, 0.926021} ,
{-0.518544, 0.927889} ,
{0.518544, 0.927889} ,
{0.590659, 0.929964} ,
{-0.590659, 0.929964} ,
{-0.659879, 0.932209} ,
{0.659879, 0.932209} ,
{0.726041, 0.934586} ,
{-0.726041, 0.934586} ,
{-0.789036, 0.937059} ,
{0.789036, 0.937059} ,
{-0.848808, 0.939598} ,
{0.848808, 0.939598} ,
{0.905344, 0.942170} ,
{-0.905344, 0.942170} ,
{0.958671, 0.944752} ,
{-0.958671, 0.944752} ,
{-1.008850, 0.947319} ,
{1.008850, 0.947319} ,
{-1.055964, 0.949854} ,
{1.055964, 0.949854} ,
{1.100121, 0.952342} ,
{-1.100121, 0.952342} ,
{1.141438, 0.954771} ,
{-1.141438, 0.954771} ,
{1.180047, 0.957131} ,
{-1.180047, 0.957131} ,
{1.216082, 0.959416} ,
{-1.216082, 0.959416} ,
{-1.249682, 0.961622} ,
{1.249682, 0.961622} ,
{-1.280984, 0.963747} ,
{1.280984, 0.963747} ,
{1.310122, 0.965788} ,
{-1.310122, 0.965788} ,
{1.337230, 0.967748} ,
{-1.337230, 0.967748} ,
{1.362433, 0.969626} ,
{-1.362433, 0.969626} ,
{-1.385852, 0.971425} ,
{1.385852, 0.971425} ,
{-1.407600, 0.973147} ,
{1.407600, 0.973147} ,
{1.427786, 0.974796} ,
{-1.427786, 0.974796} ,
{-1.446510, 0.976374} ,
{1.446510, 0.976374} ,
{1.463865, 0.977886} ,
{-1.463865, 0.977886} ,
{-1.479938, 0.979335} ,
{1.479938, 0.979335} ,
{1.494811, 0.980725} ,
{-1.494811, 0.980725} ,
{-1.508557, 0.982059} ,
{1.508557, 0.982059} ,
{-1.521245, 0.983342} ,
{1.521245, 0.983342} ,
{1.532938, 0.984576} ,
{-1.532938, 0.984576} ,
{-1.543693, 0.985766} ,
{1.543693, 0.985766} ,
{1.553562, 0.986915} ,
{-1.553562, 0.986915} ,
{-1.562593, 0.988027} ,
{1.562593, 0.988027} ,
{1.570829, 0.989104} ,
{-1.570829, 0.989104} ,
{1.578309, 0.990151} ,
{-1.578309, 0.990151} ,
{1.585067, 0.991169} ,
{-1.585067, 0.991169} ,
{-1.591136, 0.992163} ,
{1.591136, 0.992163} ,
{1.596542, 0.993134} ,
{-1.596542, 0.993134} ,
{-1.601309, 0.994087} ,
{1.601309, 0.994087} ,
{1.605459, 0.995023} ,
{-1.605459, 0.995023} ,
{-1.609010, 0.995945} ,
{1.609010, 0.995945} ,
{1.611977, 0.996857} ,
{-1.611977, 0.996857} ,
{-1.614371, 0.997760} ,
{1.614371, 0.997760} ,
{1.616203, 0.998658} ,
{-1.616203, 0.998658} ,
{-1.617478, 0.999553} ,
{1.617478, 0.999553} 
};

float B3[Korder][3] = { 
{0.982205, 0.042431} ,
{0.982205, -0.042431} ,
{0.982205, 0.127014} ,
{0.982205, -0.127014} ,
{0.982205, -0.210770} ,
{0.982205, 0.210770} ,
{0.982205, 0.293177} ,
{0.982205, -0.293177} ,
{0.982205, 0.373756} ,
{0.982205, -0.373756} ,
{0.982205, 0.452077} ,
{0.982205, -0.452077} ,
{0.982205, -0.527778} ,
{0.982205, 0.527778} ,
{0.982205, 0.600561} ,
{0.982205, -0.600561} ,
{0.982205, -0.670198} ,
{0.982205, 0.670198} ,
{0.982205, 0.736529} ,
{0.982205, -0.736529} ,
{0.982205, -0.799456} ,
{0.982205, 0.799456} ,
{0.982205, -0.858938} ,
{0.982205, 0.858938} ,
{0.982205, 0.914984} ,
{0.982205, -0.914984} ,
{0.982205, 0.967643} ,
{0.982205, -0.967643} ,
{0.982205, -1.016998} ,
{0.982205, 1.016998} ,
{0.982205, -1.063159} ,
{0.982205, 1.063159} ,
{0.982205, 1.106253} ,
{0.982205, -1.106253} ,
{0.982205, 1.146422} ,
{0.982205, -1.146422} ,
{0.982205, 1.183815} ,
{0.982205, -1.183815} ,
{0.982205, 1.218585} ,
{0.982205, -1.218585} ,
{0.982205, -1.250886} ,
{0.982205, 1.250886} ,
{0.982205, -1.280868} ,
{0.982205, 1.280868} ,
{0.982205, 1.308680} ,
{0.982205, -1.308680} ,
{0.982205, 1.334461} ,
{0.982205, -1.334461} ,
{0.982205, 1.358347} ,
{0.982205, -1.358347} ,
{0.982205, -1.380463} ,
{0.982205, 1.380463} ,
{0.982205, -1.400930} ,
{0.982205, 1.400930} ,
{0.982205, 1.419858} ,
{0.982205, -1.419858} ,
{0.982205, -1.437352} ,
{0.982205, 1.437352} ,
{0.982205, 1.453506} ,
{0.982205, -1.453506} ,
{0.982205, -1.468409} ,
{0.982205, 1.468409} ,
{0.982205, 1.482143} ,
{0.982205, -1.482143} ,
{0.982205, -1.494782} ,
{0.982205, 1.494782} ,
{0.982205, -1.506394} ,
{0.982205, 1.506394} ,
{0.982205, 1.517042} ,
{0.982205, -1.517042} ,
{0.982205, -1.526781} ,
{0.982205, 1.526781} ,
{0.982205, 1.535665} ,
{0.982205, -1.535665} ,
{0.982205, -1.543738} ,
{0.982205, 1.543738} ,
{0.982205, 1.551043} ,
{0.982205, -1.551043} ,
{0.982205, 1.557617} ,
{0.982205, -1.557617} ,
{0.982205, 1.563494} ,
{0.982205, -1.563494} ,
{0.982205, -1.568704} ,
{0.982205, 1.568704} ,
{0.982205, 1.573272} ,
{0.982205, -1.573272} ,
{0.982205, -1.577221} ,
{0.982205, 1.577221} ,
{0.982205, 1.580570} ,
{0.982205, -1.580570} ,
{0.982205, -1.583337} ,
{0.982205, 1.583337} ,
{0.982205, 1.585535} ,
{0.982205, -1.585535} ,
{0.982205, -1.587174} ,
{0.982205, 1.587174} ,
{0.982205, 1.588262} ,
{0.982205, -1.588262} ,
{0.982205, -1.588805} ,
{0.982205, 1.588805} 
};

float A4[Korder][2] = { 
{-0.010107, 0.980749} ,
{0.010107, 0.980749} ,
{-0.030308, 0.980772} ,
{0.030308, 0.980772} ,
{0.050471, 0.980817} ,
{-0.050471, 0.980817} ,
{0.070571, 0.980885} ,
{-0.070571, 0.980885} ,
{0.090581, 0.980976} ,
{-0.090581, 0.980976} ,
{-0.110478, 0.981089} ,
{0.110478, 0.981089} ,
{0.130236, 0.981223} ,
{-0.130236, 0.981223} ,
{0.149832, 0.981379} ,
{-0.149832, 0.981379} ,
{0.169243, 0.981557} ,
{-0.169243, 0.981557} ,
{-0.188444, 0.981754} ,
{0.188444, 0.981754} ,
{0.207414, 0.981973} ,
{-0.207414, 0.981973} ,
{0.226131, 0.982210} ,
{-0.226131, 0.982210} ,
{-0.244575, 0.982467} ,
{0.244575, 0.982467} ,
{0.262724, 0.982743} ,
{-0.262724, 0.982743} ,
{0.280561, 0.983036} ,
{-0.280561, 0.983036} ,
{0.298067, 0.983347} ,
{-0.298067, 0.983347} ,
{0.315223, 0.983674} ,
{-0.315223, 0.983674} ,
{-0.332014, 0.984017} ,
{0.332014, 0.984017} ,
{0.348423, 0.984375} ,
{-0.348423, 0.984375} ,
{0.364436, 0.984748} ,
{-0.364436, 0.984748} ,
{-0.380039, 0.985134} ,
{0.380039, 0.985134} ,
{0.395219, 0.985534} ,
{-0.395219, 0.985534} ,
{0.409964, 0.985946} ,
{-0.409964, 0.985946} ,
{-0.424262, 0.986370} ,
{0.424262, 0.986370} ,
{0.438102, 0.986805} ,
{-0.438102, 0.986805} ,
{-0.451476, 0.987251} ,
{0.451476, 0.987251} ,
{-0.464374, 0.987706} ,
{0.464374, 0.987706} ,
{-0.476787, 0.988171} ,
{0.476787, 0.988171} ,
{0.488709, 0.988644} ,
{-0.488709, 0.988644} ,
{0.500133, 0.989125} ,
{-0.500133, 0.989125} ,
{0.511052, 0.989613} ,
{-0.511052, 0.989613} ,
{0.521461, 0.990108} ,
{-0.521461, 0.990108} ,
{-0.531355, 0.990610} ,
{0.531355, 0.990610} ,
{0.540729, 0.991118} ,
{-0.540729, 0.991118} ,
{0.549580, 0.991631} ,
{-0.549580, 0.991631} ,
{-0.557903, 0.992149} ,
{0.557903, 0.992149} ,
{-0.565695, 0.992671} ,
{0.565695, 0.992671} ,
{0.572954, 0.993198} ,
{-0.572954, 0.993198} ,
{-0.579677, 0.993729} ,
{0.579677, 0.993729} ,
{0.585861, 0.994263} ,
{-0.585861, 0.994263} ,
{0.591505, 0.994800} ,
{-0.591505, 0.994800} ,
{0.596607, 0.995340} ,
{-0.596607, 0.995340} ,
{0.601166, 0.995882} ,
{-0.601166, 0.995882} ,
{0.605179, 0.996426} ,
{-0.605179, 0.996426} ,
{0.608646, 0.996973} ,
{-0.608646, 0.996973} ,
{-0.611566, 0.997521} ,
{0.611566, 0.997521} ,
{0.613938, 0.998070} ,
{-0.613938, 0.998070} ,
{-0.615760, 0.998620} ,
{0.615760, 0.998620} ,
{0.617033, 0.999172} ,
{-0.617033, 0.999172} ,
{0.617755, 0.999724} ,
{-0.617755, 0.999724} 
};

float B4[Korder][3] = { 
{0.994034, -0.010139} ,
{0.994034, 0.010139} ,
{0.994034, -0.030405} ,
{0.994034, 0.030405} ,
{0.994034, 0.050631} ,
{0.994034, -0.050631} ,
{0.994034, 0.070792} ,
{0.994034, -0.070792} ,
{0.994034, 0.090861} ,
{0.994034, -0.090861} ,
{0.994034, -0.110813} ,
{0.994034, 0.110813} ,
{0.994034, 0.130622} ,
{0.994034, -0.130622} ,
{0.994034, 0.150265} ,
{0.994034, -0.150265} ,
{0.994034, 0.169716} ,
{0.994034, -0.169716} ,
{0.994034, -0.188952} ,
{0.994034, 0.188952} ,
{0.994034, 0.207951} ,
{0.994034, -0.207951} ,
{0.994034, 0.226690} ,
{0.994034, -0.226690} ,
{0.994034, -0.245148} ,
{0.994034, 0.245148} ,
{0.994034, 0.263304} ,
{0.994034, -0.263304} ,
{0.994034, 0.281139} ,
{0.994034, -0.281139} ,
{0.994034, 0.298635} ,
{0.994034, -0.298635} ,
{0.994034, 0.315773} ,
{0.994034, -0.315773} ,
{0.994034, -0.332536} ,
{0.994034, 0.332536} ,
{0.994034, 0.348909} ,
{0.994034, -0.348909} ,
{0.994034, 0.364877} ,
{0.994034, -0.364877} ,
{0.994034, -0.380426} ,
{0.994034, 0.380426} ,
{0.994034, 0.395543} ,
{0.994034, -0.395543} ,
{0.994034, 0.410216} ,
{0.994034, -0.410216} ,
{0.994034, -0.424433} ,
{0.994034, 0.424433} ,
{0.994034, 0.438184} ,
{0.994034, -0.438184} ,
{0.994034, -0.451460} ,
{0.994034, 0.451460} ,
{0.994034, -0.464253} ,
{0.994034, 0.464253} ,
{0.994034, -0.476553} ,
{0.994034, 0.476553} ,
{0.994034, 0.488354} ,
{0.994034, -0.488354} ,
{0.994034, 0.499650} ,
{0.994034, -0.499650} ,
{0.994034, 0.510435} ,
{0.994034, -0.510435} ,
{0.994034, 0.520703} ,
{0.994034, -0.520703} ,
{0.994034, -0.530450} ,
{0.994034, 0.530450} ,
{0.994034, 0.539672} ,
{0.994034, -0.539672} ,
{0.994034, 0.548365} ,
{0.994034, -0.548365} ,
{0.994034, -0.556526} ,
{0.994034, 0.556526} ,
{0.994034, -0.564152} ,
{0.994034, 0.564152} ,
{0.994034, 0.571241} ,
{0.994034, -0.571241} ,
{0.994034, -0.577791} ,
{0.994034, 0.577791} ,
{0.994034, 0.583800} ,
{0.994034, -0.583800} ,
{0.994034, 0.589266} ,
{0.994034, -0.589266} ,
{0.994034, 0.594189} ,
{0.994034, -0.594189} ,
{0.994034, 0.598567} ,
{0.994034, -0.598567} ,
{0.994034, 0.602400} ,
{0.994034, -0.602400} ,
{0.994034, 0.605686} ,
{0.994034, -0.605686} ,
{0.994034, -0.608425} ,
{0.994034, 0.608425} ,
{0.994034, 0.610617} ,
{0.994034, -0.610617} ,
{0.994034, -0.612261} ,
{0.994034, 0.612261} ,
{0.994034, 0.613357} ,
{0.994034, -0.613357} ,
{0.994034, 0.613905} ,
{0.994034, -0.613905} 
};

