#define Korder 105 
float A1[Korder][2] = { 
{-0.000000, 0.695059} ,
{0.321142, 0.704397} ,
{-0.321142, 0.704397} ,
{-0.618378, 0.729188} ,
{0.618378, 0.729188} ,
{0.875916, 0.762254} ,
{-0.875916, 0.762254} ,
{1.088505, 0.796839} ,
{-1.088505, 0.796839} ,
{1.258711, 0.828789} ,
{-1.258711, 0.828789} ,
{1.392848, 0.856387} ,
{-1.392848, 0.856387} ,
{1.498015, 0.879396} ,
{-1.498015, 0.879396} ,
{1.580618, 0.898260} ,
{-1.580618, 0.898260} ,
{-1.645893, 0.913634} ,
{1.645893, 0.913634} ,
{1.697906, 0.926170} ,
{-1.697906, 0.926170} ,
{1.739745, 0.936432} ,
{-1.739745, 0.936432} ,
{-1.773733, 0.944884} ,
{1.773733, 0.944884} ,
{-1.801612, 0.951894} ,
{1.801612, 0.951894} ,
{1.824694, 0.957751} ,
{-1.824694, 0.957751} ,
{1.843974, 0.962682} ,
{-1.843974, 0.962682} ,
{1.860214, 0.966864} ,
{-1.860214, 0.966864} ,
{1.873999, 0.970436} ,
{-1.873999, 0.970436} ,
{1.885785, 0.973507} ,
{-1.885785, 0.973507} ,
{-1.895928, 0.976165} ,
{1.895928, 0.976165} ,
{1.904713, 0.978480} ,
{-1.904713, 0.978480} ,
{-1.912365, 0.980506} ,
{1.912365, 0.980506} ,
{1.919064, 0.982291} ,
{-1.919064, 0.982291} ,
{1.924959, 0.983871} ,
{-1.924959, 0.983871} ,
{-1.930169, 0.985276} ,
{1.930169, 0.985276} ,
{-1.934793, 0.986532} ,
{1.934793, 0.986532} ,
{-1.938914, 0.987659} ,
{1.938914, 0.987659} ,
{1.942597, 0.988676} ,
{-1.942597, 0.988676} ,
{1.945902, 0.989596} ,
{-1.945902, 0.989596} ,
{1.948875, 0.990433} ,
{-1.948875, 0.990433} ,
{1.951557, 0.991196} ,
{-1.951557, 0.991196} ,
{1.953983, 0.991896} ,
{-1.953983, 0.991896} ,
{-1.956182, 0.992539} ,
{1.956182, 0.992539} ,
{1.958179, 0.993133} ,
{-1.958179, 0.993133} ,
{-1.959997, 0.993682} ,
{1.959997, 0.993682} ,
{-1.961653, 0.994194} ,
{1.961653, 0.994194} ,
{1.963164, 0.994671} ,
{-1.963164, 0.994671} ,
{-1.964544, 0.995117} ,
{1.964544, 0.995117} ,
{1.965806, 0.995537} ,
{-1.965806, 0.995537} ,
{1.966960, 0.995933} ,
{-1.966960, 0.995933} ,
{-1.968016, 0.996307} ,
{1.968016, 0.996307} ,
{1.968982, 0.996664} ,
{-1.968982, 0.996664} ,
{1.969865, 0.997003} ,
{-1.969865, 0.997003} ,
{-1.970672, 0.997328} ,
{1.970672, 0.997328} ,
{-1.971408, 0.997641} ,
{1.971408, 0.997641} ,
{1.972079, 0.997943} ,
{-1.972079, 0.997943} ,
{1.972688, 0.998235} ,
{-1.972688, 0.998235} ,
{-1.973239, 0.998519} ,
{1.973239, 0.998519} ,
{1.973736, 0.998797} ,
{-1.973736, 0.998797} ,
{-1.974181, 0.999070} ,
{1.974181, 0.999070} ,
{-1.974578, 0.999338} ,
{1.974578, 0.999338} ,
{1.974927, 0.999604} ,
{-1.974927, 0.999604} ,
{1.975231, 0.999868} ,
{-1.975231, 0.999868} 
};

float B1[Korder][3] = { 
{0.974671, -0.000000} ,
{0.974671, 0.361580} ,
{0.974671, -0.361580} ,
{0.974671, -0.688230} ,
{0.974671, 0.688230} ,
{0.974671, 0.959700} ,
{0.974671, -0.959700} ,
{0.974671, 1.172957} ,
{0.974671, -1.172957} ,
{0.974671, 1.335458} ,
{0.974671, -1.335458} ,
{0.974671, 1.457914} ,
{0.974671, -1.457914} ,
{0.974671, 1.550310} ,
{0.974671, -1.550310} ,
{0.974671, 1.620601} ,
{0.974671, -1.620601} ,
{0.974671, -1.674708} ,
{0.974671, 1.674708} ,
{0.974671, 1.716907} ,
{0.974671, -1.716907} ,
{0.974671, 1.750259} ,
{0.974671, -1.750259} ,
{0.974671, -1.776961} ,
{0.974671, 1.776961} ,
{0.974671, -1.798600} ,
{0.974671, 1.798600} ,
{0.974671, 1.816335} ,
{0.974671, -1.816335} ,
{0.974671, 1.831022} ,
{0.974671, -1.831022} ,
{0.974671, 1.843301} ,
{0.974671, -1.843301} ,
{0.974671, 1.853657} ,
{0.974671, -1.853657} ,
{0.974671, 1.862460} ,
{0.974671, -1.862460} ,
{0.974671, -1.869998} ,
{0.974671, 1.869998} ,
{0.974671, 1.876495} ,
{0.974671, -1.876495} ,
{0.974671, -1.882130} ,
{0.974671, 1.882130} ,
{0.974671, 1.887043} ,
{0.974671, -1.887043} ,
{0.974671, 1.891349} ,
{0.974671, -1.891349} ,
{0.974671, -1.895139} ,
{0.974671, 1.895139} ,
{0.974671, -1.898490} ,
{0.974671, 1.898490} ,
{0.974671, -1.901463} ,
{0.974671, 1.901463} ,
{0.974671, 1.904109} ,
{0.974671, -1.904109} ,
{0.974671, 1.906473} ,
{0.974671, -1.906473} ,
{0.974671, 1.908589} ,
{0.974671, -1.908589} ,
{0.974671, 1.910488} ,
{0.974671, -1.910488} ,
{0.974671, 1.912195} ,
{0.974671, -1.912195} ,
{0.974671, -1.913732} ,
{0.974671, 1.913732} ,
{0.974671, 1.915119} ,
{0.974671, -1.915119} ,
{0.974671, -1.916370} ,
{0.974671, 1.916370} ,
{0.974671, -1.917500} ,
{0.974671, 1.917500} ,
{0.974671, 1.918520} ,
{0.974671, -1.918520} ,
{0.974671, -1.919441} ,
{0.974671, 1.919441} ,
{0.974671, 1.920272} ,
{0.974671, -1.920272} ,
{0.974671, 1.921020} ,
{0.974671, -1.921020} ,
{0.974671, -1.921691} ,
{0.974671, 1.921691} ,
{0.974671, 1.922293} ,
{0.974671, -1.922293} ,
{0.974671, 1.922829} ,
{0.974671, -1.922829} ,
{0.974671, -1.923304} ,
{0.974671, 1.923304} ,
{0.974671, -1.923723} ,
{0.974671, 1.923723} ,
{0.974671, 1.924087} ,
{0.974671, -1.924087} ,
{0.974671, 1.924400} ,
{0.974671, -1.924400} ,
{0.974671, -1.924664} ,
{0.974671, 1.924664} ,
{0.974671, 1.924882} ,
{0.974671, -1.924882} ,
{0.974671, -1.925054} ,
{0.974671, 1.925054} ,
{0.974671, -1.925182} ,
{0.974671, 1.925182} ,
{0.974671, 1.925267} ,
{0.974671, -1.925267} ,
{0.974671, 1.925309} ,
{0.974671, -1.925309} 
};

float A2[Korder][2] = { 
{0.000000, 0.838753} ,
{-0.169310, 0.840075} ,
{0.169310, 0.840075} ,
{-0.334918, 0.843915} ,
{0.334918, 0.843915} ,
{0.493516, 0.849926} ,
{-0.493516, 0.849926} ,
{-0.642484, 0.857612} ,
{0.642484, 0.857612} ,
{-0.780047, 0.866424} ,
{0.780047, 0.866424} ,
{0.905271, 0.875840} ,
{-0.905271, 0.875840} ,
{-1.017951, 0.885417} ,
{1.017951, 0.885417} ,
{1.118444, 0.894817} ,
{-1.118444, 0.894817} ,
{1.207485, 0.903804} ,
{-1.207485, 0.903804} ,
{-1.286027, 0.912235} ,
{1.286027, 0.912235} ,
{-1.355121, 0.920033} ,
{1.355121, 0.920033} ,
{-1.415823, 0.927174} ,
{1.415823, 0.927174} ,
{1.469140, 0.933668} ,
{-1.469140, 0.933668} ,
{-1.516003, 0.939548} ,
{1.516003, 0.939548} ,
{1.557246, 0.944854} ,
{-1.557246, 0.944854} ,
{1.593606, 0.949637} ,
{-1.593606, 0.949637} ,
{1.625730, 0.953945} ,
{-1.625730, 0.953945} ,
{1.654176, 0.957827} ,
{-1.654176, 0.957827} ,
{-1.679428, 0.961329} ,
{1.679428, 0.961329} ,
{1.701901, 0.964491} ,
{-1.701901, 0.964491} ,
{1.721950, 0.967351} ,
{-1.721950, 0.967351} ,
{-1.739883, 0.969944} ,
{1.739883, 0.969944} ,
{-1.755962, 0.972300} ,
{1.755962, 0.972300} ,
{1.770411, 0.974444} ,
{-1.770411, 0.974444} ,
{1.783427, 0.976401} ,
{-1.783427, 0.976401} ,
{-1.795175, 0.978191} ,
{1.795175, 0.978191} ,
{1.805801, 0.979834} ,
{-1.805801, 0.979834} ,
{1.815429, 0.981344} ,
{-1.815429, 0.981344} ,
{1.824168, 0.982737} ,
{-1.824168, 0.982737} ,
{-1.832112, 0.984024} ,
{1.832112, 0.984024} ,
{1.839344, 0.985218} ,
{-1.839344, 0.985218} ,
{1.845934, 0.986327} ,
{-1.845934, 0.986327} ,
{1.851946, 0.987362} ,
{-1.851946, 0.987362} ,
{-1.857434, 0.988329} ,
{1.857434, 0.988329} ,
{1.862447, 0.989236} ,
{-1.862447, 0.989236} ,
{1.867026, 0.990088} ,
{-1.867026, 0.990088} ,
{1.871210, 0.990893} ,
{-1.871210, 0.990893} ,
{1.875031, 0.991654} ,
{-1.875031, 0.991654} ,
{-1.878519, 0.992376} ,
{1.878519, 0.992376} ,
{1.881697, 0.993063} ,
{-1.881697, 0.993063} ,
{1.884590, 0.993720} ,
{-1.884590, 0.993720} ,
{-1.887218, 0.994350} ,
{1.887218, 0.994350} ,
{1.889597, 0.994955} ,
{-1.889597, 0.994955} ,
{-1.891743, 0.995539} ,
{1.891743, 0.995539} ,
{-1.893669, 0.996105} ,
{1.893669, 0.996105} ,
{1.895388, 0.996655} ,
{-1.895388, 0.996655} ,
{1.896910, 0.997191} ,
{-1.896910, 0.997191} ,
{1.898243, 0.997716} ,
{-1.898243, 0.997716} ,
{-1.899394, 0.998233} ,
{1.899394, 0.998233} ,
{-1.900371, 0.998742} ,
{1.900371, 0.998742} ,
{-1.901177, 0.999247} ,
{1.901177, 0.999247} ,
{1.901817, 0.999749} ,
{-1.901817, 0.999749} 
};

float B2[Korder][3] = { 
{0.977455, -0.000000} ,
{0.977455, -0.179123} ,
{0.977455, 0.179123} ,
{0.977455, -0.353665} ,
{0.977455, 0.353665} ,
{0.977455, 0.519607} ,
{0.977455, -0.519607} ,
{0.977455, -0.673904} ,
{0.977455, 0.673904} ,
{0.977455, -0.814658} ,
{0.977455, 0.814658} ,
{0.977455, 0.941064} ,
{0.977455, -0.941064} ,
{0.977455, -1.053213} ,
{0.977455, 1.053213} ,
{0.977455, 1.151827} ,
{0.977455, -1.151827} ,
{0.977455, 1.238010} ,
{0.977455, -1.238010} ,
{0.977455, -1.313047} ,
{0.977455, 1.313047} ,
{0.977455, -1.378256} ,
{0.977455, 1.378256} ,
{0.977455, -1.434903} ,
{0.977455, 1.434903} ,
{0.977455, 1.484148} ,
{0.977455, -1.484148} ,
{0.977455, -1.527025} ,
{0.977455, 1.527025} ,
{0.977455, 1.564438} ,
{0.977455, -1.564438} ,
{0.977455, 1.597166} ,
{0.977455, -1.597166} ,
{0.977455, 1.625876} ,
{0.977455, -1.625876} ,
{0.977455, 1.651135} ,
{0.977455, -1.651135} ,
{0.977455, -1.673424} ,
{0.977455, 1.673424} ,
{0.977455, 1.693151} ,
{0.977455, -1.693151} ,
{0.977455, 1.710662} ,
{0.977455, -1.710662} ,
{0.977455, -1.726249} ,
{0.977455, 1.726249} ,
{0.977455, -1.740161} ,
{0.977455, 1.740161} ,
{0.977455, 1.752609} ,
{0.977455, -1.752609} ,
{0.977455, 1.763775} ,
{0.977455, -1.763775} ,
{0.977455, -1.773812} ,
{0.977455, 1.773812} ,
{0.977455, 1.782853} ,
{0.977455, -1.782853} ,
{0.977455, 1.791012} ,
{0.977455, -1.791012} ,
{0.977455, 1.798386} ,
{0.977455, -1.798386} ,
{0.977455, -1.805061} ,
{0.977455, 1.805061} ,
{0.977455, 1.811108} ,
{0.977455, -1.811108} ,
{0.977455, 1.816593} ,
{0.977455, -1.816593} ,
{0.977455, 1.821571} ,
{0.977455, -1.821571} ,
{0.977455, -1.826089} ,
{0.977455, 1.826089} ,
{0.977455, 1.830190} ,
{0.977455, -1.830190} ,
{0.977455, 1.833911} ,
{0.977455, -1.833911} ,
{0.977455, 1.837284} ,
{0.977455, -1.837284} ,
{0.977455, 1.840338} ,
{0.977455, -1.840338} ,
{0.977455, -1.843097} ,
{0.977455, 1.843097} ,
{0.977455, 1.845583} ,
{0.977455, -1.845583} ,
{0.977455, 1.847815} ,
{0.977455, -1.847815} ,
{0.977455, -1.849810} ,
{0.977455, 1.849810} ,
{0.977455, 1.851583} ,
{0.977455, -1.851583} ,
{0.977455, -1.853146} ,
{0.977455, 1.853146} ,
{0.977455, -1.854509} ,
{0.977455, 1.854509} ,
{0.977455, 1.855683} ,
{0.977455, -1.855683} ,
{0.977455, 1.856676} ,
{0.977455, -1.856676} ,
{0.977455, 1.857493} ,
{0.977455, -1.857493} ,
{0.977455, -1.858140} ,
{0.977455, 1.858140} ,
{0.977455, -1.858623} ,
{0.977455, 1.858623} ,
{0.977455, -1.858942} ,
{0.977455, 1.858942} ,
{0.977455, 1.859101} ,
{0.977455, -1.859101} 
};

float A3[Korder][2] = { 
{-0.000000, 0.924524} ,
{-0.079226, 0.924680} ,
{0.079226, 0.924680} ,
{0.158019, 0.925143} ,
{-0.158019, 0.925143} ,
{0.235953, 0.925904} ,
{-0.235953, 0.925904} ,
{0.312631, 0.926945} ,
{-0.312631, 0.926945} ,
{0.387682, 0.928246} ,
{-0.387682, 0.928246} ,
{0.460780, 0.929780} ,
{-0.460780, 0.929780} ,
{0.531639, 0.931519} ,
{-0.531639, 0.931519} ,
{0.600025, 0.933432} ,
{-0.600025, 0.933432} ,
{0.665753, 0.935487} ,
{-0.665753, 0.935487} ,
{0.728685, 0.937655} ,
{-0.728685, 0.937655} ,
{-0.788730, 0.939906} ,
{0.788730, 0.939906} ,
{-0.845840, 0.942213} ,
{0.845840, 0.942213} ,
{0.900004, 0.944551} ,
{-0.900004, 0.944551} ,
{0.951242, 0.946899} ,
{-0.951242, 0.946899} ,
{0.999604, 0.949238} ,
{-0.999604, 0.949238} ,
{1.045161, 0.951552} ,
{-1.045161, 0.951552} ,
{1.088000, 0.953828} ,
{-1.088000, 0.953828} ,
{1.128223, 0.956055} ,
{-1.128223, 0.956055} ,
{-1.165941, 0.958225} ,
{1.165941, 0.958225} ,
{1.201270, 0.960332} ,
{-1.201270, 0.960332} ,
{-1.234329, 0.962371} ,
{1.234329, 0.962371} ,
{-1.265238, 0.964341} ,
{1.265238, 0.964341} ,
{1.294117, 0.966239} ,
{-1.294117, 0.966239} ,
{-1.321080, 0.968066} ,
{1.321080, 0.968066} ,
{1.346241, 0.969821} ,
{-1.346241, 0.969821} ,
{-1.369708, 0.971506} ,
{1.369708, 0.971506} ,
{1.391584, 0.973123} ,
{-1.391584, 0.973123} ,
{-1.411965, 0.974675} ,
{1.411965, 0.974675} ,
{1.430945, 0.976163} ,
{-1.430945, 0.976163} ,
{-1.448608, 0.977591} ,
{1.448608, 0.977591} ,
{1.465037, 0.978961} ,
{-1.465037, 0.978961} ,
{1.480305, 0.980276} ,
{-1.480305, 0.980276} ,
{-1.494482, 0.981541} ,
{1.494482, 0.981541} ,
{-1.507634, 0.982757} ,
{1.507634, 0.982757} ,
{-1.519819, 0.983928} ,
{1.519819, 0.983928} ,
{1.531093, 0.985056} ,
{-1.531093, 0.985056} ,
{1.541506, 0.986146} ,
{-1.541506, 0.986146} ,
{-1.551104, 0.987199} ,
{1.551104, 0.987199} ,
{-1.559930, 0.988219} ,
{1.559930, 0.988219} ,
{1.568021, 0.989208} ,
{-1.568021, 0.989208} ,
{-1.575414, 0.990170} ,
{1.575414, 0.990170} ,
{-1.582138, 0.991105} ,
{1.582138, 0.991105} ,
{-1.588224, 0.992019} ,
{1.588224, 0.992019} ,
{-1.593695, 0.992911} ,
{1.593695, 0.992911} ,
{-1.598576, 0.993786} ,
{1.598576, 0.993786} ,
{1.602885, 0.994645} ,
{-1.602885, 0.994645} ,
{-1.606639, 0.995490} ,
{1.606639, 0.995490} ,
{-1.609854, 0.996325} ,
{1.609854, 0.996325} ,
{1.612542, 0.997150} ,
{-1.612542, 0.997150} ,
{1.614712, 0.997969} ,
{-1.614712, 0.997969} ,
{1.616373, 0.998783} ,
{-1.616373, 0.998783} ,
{-1.617530, 0.999595} ,
{1.617530, 0.999595} 
};

float B3[Korder][3] = { 
{0.983045, -0.000000} ,
{0.983045, -0.080836} ,
{0.983045, 0.080836} ,
{0.983045, 0.161192} ,
{0.983045, -0.161192} ,
{0.983045, 0.240602} ,
{0.983045, -0.240602} ,
{0.983045, 0.318626} ,
{0.983045, -0.318626} ,
{0.983045, 0.394863} ,
{0.983045, -0.394863} ,
{0.983045, 0.468959} ,
{0.983045, -0.468959} ,
{0.983045, 0.540611} ,
{0.983045, -0.540611} ,
{0.983045, 0.609575} ,
{0.983045, -0.609575} ,
{0.983045, 0.675661} ,
{0.983045, -0.675661} ,
{0.983045, 0.738738} ,
{0.983045, -0.738738} ,
{0.983045, -0.798722} ,
{0.983045, 0.798722} ,
{0.983045, -0.855578} ,
{0.983045, 0.855578} ,
{0.983045, 0.909312} ,
{0.983045, -0.909312} ,
{0.983045, 0.959964} ,
{0.983045, -0.959964} ,
{0.983045, 1.007602} ,
{0.983045, -1.007602} ,
{0.983045, 1.052317} ,
{0.983045, -1.052317} ,
{0.983045, 1.094215} ,
{0.983045, -1.094215} ,
{0.983045, 1.133417} ,
{0.983045, -1.133417} ,
{0.983045, -1.170051} ,
{0.983045, 1.170051} ,
{0.983045, 1.204246} ,
{0.983045, -1.204246} ,
{0.983045, -1.236137} ,
{0.983045, 1.236137} ,
{0.983045, -1.265855} ,
{0.983045, 1.265855} ,
{0.983045, 1.293530} ,
{0.983045, -1.293530} ,
{0.983045, -1.319286} ,
{0.983045, 1.319286} ,
{0.983045, 1.343243} ,
{0.983045, -1.343243} ,
{0.983045, -1.365516} ,
{0.983045, 1.365516} ,
{0.983045, 1.386212} ,
{0.983045, -1.386212} ,
{0.983045, -1.405432} ,
{0.983045, 1.405432} ,
{0.983045, 1.423272} ,
{0.983045, -1.423272} ,
{0.983045, -1.439820} ,
{0.983045, 1.439820} ,
{0.983045, 1.455159} ,
{0.983045, -1.455159} ,
{0.983045, 1.469364} ,
{0.983045, -1.469364} ,
{0.983045, -1.482505} ,
{0.983045, 1.482505} ,
{0.983045, -1.494648} ,
{0.983045, 1.494648} ,
{0.983045, -1.505852} ,
{0.983045, 1.505852} ,
{0.983045, 1.516172} ,
{0.983045, -1.516172} ,
{0.983045, 1.525657} ,
{0.983045, -1.525657} ,
{0.983045, -1.534352} ,
{0.983045, 1.534352} ,
{0.983045, -1.542300} ,
{0.983045, 1.542300} ,
{0.983045, 1.549537} ,
{0.983045, -1.549537} ,
{0.983045, -1.556097} ,
{0.983045, 1.556097} ,
{0.983045, -1.562011} ,
{0.983045, 1.562011} ,
{0.983045, -1.567307} ,
{0.983045, 1.567307} ,
{0.983045, -1.572007} ,
{0.983045, 1.572007} ,
{0.983045, -1.576133} ,
{0.983045, 1.576133} ,
{0.983045, 1.579705} ,
{0.983045, -1.579705} ,
{0.983045, -1.582738} ,
{0.983045, 1.582738} ,
{0.983045, -1.585244} ,
{0.983045, 1.585244} ,
{0.983045, 1.587237} ,
{0.983045, -1.587237} ,
{0.983045, 1.588724} ,
{0.983045, -1.588724} ,
{0.983045, 1.589711} ,
{0.983045, -1.589711} ,
{0.983045, -1.590204} ,
{0.983045, 1.590204} 
};

float A4[Korder][2] = { 
{0.000000, 0.981654} ,
{-0.019258, 0.981664} ,
{0.019258, 0.981664} ,
{0.038494, 0.981693} ,
{-0.038494, 0.981693} ,
{0.057686, 0.981742} ,
{-0.057686, 0.981742} ,
{-0.076811, 0.981811} ,
{0.076811, 0.981811} ,
{0.095849, 0.981899} ,
{-0.095849, 0.981899} ,
{0.114778, 0.982006} ,
{-0.114778, 0.982006} ,
{-0.133576, 0.982132} ,
{0.133576, 0.982132} ,
{0.152223, 0.982276} ,
{-0.152223, 0.982276} ,
{-0.170699, 0.982439} ,
{0.170699, 0.982439} ,
{0.188983, 0.982620} ,
{-0.188983, 0.982620} ,
{0.207057, 0.982818} ,
{-0.207057, 0.982818} ,
{0.224902, 0.983033} ,
{-0.224902, 0.983033} ,
{0.242499, 0.983264} ,
{-0.242499, 0.983264} ,
{0.259832, 0.983512} ,
{-0.259832, 0.983512} ,
{0.276883, 0.983775} ,
{-0.276883, 0.983775} ,
{0.293637, 0.984053} ,
{-0.293637, 0.984053} ,
{0.310077, 0.984346} ,
{-0.310077, 0.984346} ,
{0.326191, 0.984653} ,
{-0.326191, 0.984653} ,
{0.341962, 0.984973} ,
{-0.341962, 0.984973} ,
{0.357380, 0.985306} ,
{-0.357380, 0.985306} ,
{0.372430, 0.985651} ,
{-0.372430, 0.985651} ,
{0.387102, 0.986008} ,
{-0.387102, 0.986008} ,
{-0.401384, 0.986375} ,
{0.401384, 0.986375} ,
{0.415267, 0.986754} ,
{-0.415267, 0.986754} ,
{0.428740, 0.987142} ,
{-0.428740, 0.987142} ,
{0.441796, 0.987539} ,
{-0.441796, 0.987539} ,
{0.454425, 0.987946} ,
{-0.454425, 0.987946} ,
{-0.466620, 0.988361} ,
{0.466620, 0.988361} ,
{0.478375, 0.988783} ,
{-0.478375, 0.988783} ,
{0.489683, 0.989213} ,
{-0.489683, 0.989213} ,
{0.500537, 0.989650} ,
{-0.500537, 0.989650} ,
{-0.510934, 0.990094} ,
{0.510934, 0.990094} ,
{0.520867, 0.990543} ,
{-0.520867, 0.990543} ,
{-0.530333, 0.990998} ,
{0.530333, 0.990998} ,
{-0.539328, 0.991458} ,
{0.539328, 0.991458} ,
{-0.547848, 0.991922} ,
{0.547848, 0.991922} ,
{0.555890, 0.992391} ,
{-0.555890, 0.992391} ,
{0.563451, 0.992864} ,
{-0.563451, 0.992864} ,
{0.570528, 0.993341} ,
{-0.570528, 0.993341} ,
{0.577120, 0.993821} ,
{-0.577120, 0.993821} ,
{0.583224, 0.994304} ,
{-0.583224, 0.994304} ,
{0.588838, 0.994790} ,
{-0.588838, 0.994790} ,
{-0.593962, 0.995279} ,
{0.593962, 0.995279} ,
{0.598592, 0.995770} ,
{-0.598592, 0.995770} ,
{0.602729, 0.996262} ,
{-0.602729, 0.996262} ,
{0.606371, 0.996757} ,
{-0.606371, 0.996757} ,
{-0.609517, 0.997253} ,
{0.609517, 0.997253} ,
{0.612167, 0.997750} ,
{-0.612167, 0.997750} ,
{-0.614318, 0.998249} ,
{0.614318, 0.998249} ,
{0.615971, 0.998748} ,
{-0.615971, 0.998748} ,
{0.617126, 0.999249} ,
{-0.617126, 0.999249} ,
{-0.617781, 0.999749} ,
{0.617781, 0.999749} 
};

float B4[Korder][3] = { 
{0.994317, 0.000000} ,
{0.994317, -0.019317} ,
{0.994317, 0.019317} ,
{0.994317, 0.038611} ,
{0.994317, -0.038611} ,
{0.994317, 0.057860} ,
{0.994317, -0.057860} ,
{0.994317, -0.077041} ,
{0.994317, 0.077041} ,
{0.994317, 0.096132} ,
{0.994317, -0.096132} ,
{0.994317, 0.115110} ,
{0.994317, -0.115110} ,
{0.994317, -0.133955} ,
{0.994317, 0.133955} ,
{0.994317, 0.152644} ,
{0.994317, -0.152644} ,
{0.994317, -0.171157} ,
{0.994317, 0.171157} ,
{0.994317, 0.189473} ,
{0.994317, -0.189473} ,
{0.994317, 0.207573} ,
{0.994317, -0.207573} ,
{0.994317, 0.225439} ,
{0.994317, -0.225439} ,
{0.994317, 0.243050} ,
{0.994317, -0.243050} ,
{0.994317, 0.260390} ,
{0.994317, -0.260390} ,
{0.994317, 0.277442} ,
{0.994317, -0.277442} ,
{0.994317, 0.294188} ,
{0.994317, -0.294188} ,
{0.994317, 0.310615} ,
{0.994317, -0.310615} ,
{0.994317, 0.326706} ,
{0.994317, -0.326706} ,
{0.994317, 0.342448} ,
{0.994317, -0.342448} ,
{0.994317, 0.357828} ,
{0.994317, -0.357828} ,
{0.994317, 0.372834} ,
{0.994317, -0.372834} ,
{0.994317, 0.387453} ,
{0.994317, -0.387453} ,
{0.994317, -0.401675} ,
{0.994317, 0.401675} ,
{0.994317, 0.415489} ,
{0.994317, -0.415489} ,
{0.994317, 0.428887} ,
{0.994317, -0.428887} ,
{0.994317, 0.441860} ,
{0.994317, -0.441860} ,
{0.994317, 0.454399} ,
{0.994317, -0.454399} ,
{0.994317, -0.466497} ,
{0.994317, 0.466497} ,
{0.994317, 0.478148} ,
{0.994317, -0.478148} ,
{0.994317, 0.489346} ,
{0.994317, -0.489346} ,
{0.994317, 0.500085} ,
{0.994317, -0.500085} ,
{0.994317, -0.510359} ,
{0.994317, 0.510359} ,
{0.994317, 0.520165} ,
{0.994317, -0.520165} ,
{0.994317, -0.529499} ,
{0.994317, 0.529499} ,
{0.994317, -0.538356} ,
{0.994317, 0.538356} ,
{0.994317, -0.546734} ,
{0.994317, 0.546734} ,
{0.994317, 0.554630} ,
{0.994317, -0.554630} ,
{0.994317, 0.562041} ,
{0.994317, -0.562041} ,
{0.994317, 0.568966} ,
{0.994317, -0.568966} ,
{0.994317, 0.575402} ,
{0.994317, -0.575402} ,
{0.994317, 0.581347} ,
{0.994317, -0.581347} ,
{0.994317, 0.586802} ,
{0.994317, -0.586802} ,
{0.994317, -0.591763} ,
{0.994317, 0.591763} ,
{0.994317, 0.596230} ,
{0.994317, -0.596230} ,
{0.994317, 0.600203} ,
{0.994317, -0.600203} ,
{0.994317, 0.603681} ,
{0.994317, -0.603681} ,
{0.994317, -0.606663} ,
{0.994317, 0.606663} ,
{0.994317, 0.609148} ,
{0.994317, -0.609148} ,
{0.994317, -0.611137} ,
{0.994317, 0.611137} ,
{0.994317, 0.612629} ,
{0.994317, -0.612629} ,
{0.994317, 0.613624} ,
{0.994317, -0.613624} ,
{0.994317, -0.614121} ,
{0.994317, 0.614121} 
};

