#define Korder 116 
float A1[Korder][2] = { 
{0.148592, 0.721723} ,
{-0.148592, 0.721723} ,
{0.436093, 0.735440} ,
{-0.436093, 0.735440} ,
{0.697512, 0.759115} ,
{-0.697512, 0.759115} ,
{-0.923416, 0.787535} ,
{0.923416, 0.787535} ,
{-1.111558, 0.816352} ,
{1.111558, 0.816352} ,
{-1.264621, 0.842947} ,
{1.264621, 0.842947} ,
{1.387609, 0.866205} ,
{-1.387609, 0.866205} ,
{1.486004, 0.885942} ,
{-1.486004, 0.885942} ,
{1.564815, 0.902435} ,
{-1.564815, 0.902435} ,
{1.628234, 0.916129} ,
{-1.628234, 0.916129} ,
{1.679608, 0.927489} ,
{-1.679608, 0.927489} ,
{1.721548, 0.936935} ,
{-1.721548, 0.936935} ,
{1.756068, 0.944824} ,
{-1.756068, 0.944824} ,
{-1.784716, 0.951450} ,
{1.784716, 0.951450} ,
{-1.808683, 0.957047} ,
{1.808683, 0.957047} ,
{-1.828889, 0.961806} ,
{1.828889, 0.961806} ,
{1.846049, 0.965876} ,
{-1.846049, 0.965876} ,
{-1.860725, 0.969380} ,
{1.860725, 0.969380} ,
{-1.873357, 0.972413} ,
{1.873357, 0.972413} ,
{1.884295, 0.975053} ,
{-1.884295, 0.975053} ,
{1.893821, 0.977365} ,
{-1.893821, 0.977365} ,
{1.902160, 0.979398} ,
{-1.902160, 0.979398} ,
{1.909497, 0.981197} ,
{-1.909497, 0.981197} ,
{1.915981, 0.982794} ,
{-1.915981, 0.982794} ,
{-1.921735, 0.984219} ,
{1.921735, 0.984219} ,
{1.926862, 0.985496} ,
{-1.926862, 0.985496} ,
{-1.931448, 0.986645} ,
{1.931448, 0.986645} ,
{1.935562, 0.987682} ,
{-1.935562, 0.987682} ,
{1.939266, 0.988623} ,
{-1.939266, 0.988623} ,
{-1.942610, 0.989478} ,
{1.942610, 0.989478} ,
{1.945637, 0.990259} ,
{-1.945637, 0.990259} ,
{1.948384, 0.990975} ,
{-1.948384, 0.990975} ,
{-1.950883, 0.991632} ,
{1.950883, 0.991632} ,
{1.953161, 0.992238} ,
{-1.953161, 0.992238} ,
{1.955241, 0.992798} ,
{-1.955241, 0.992798} ,
{-1.957144, 0.993318} ,
{1.957144, 0.993318} ,
{-1.958889, 0.993801} ,
{1.958889, 0.993801} ,
{-1.960489, 0.994253} ,
{1.960489, 0.994253} ,
{1.961960, 0.994675} ,
{-1.961960, 0.994675} ,
{1.963313, 0.995071} ,
{-1.963313, 0.995071} ,
{-1.964557, 0.995444} ,
{1.964557, 0.995444} ,
{1.965704, 0.995796} ,
{-1.965704, 0.995796} ,
{1.966761, 0.996130} ,
{-1.966761, 0.996130} ,
{-1.967734, 0.996447} ,
{1.967734, 0.996447} ,
{1.968632, 0.996749} ,
{-1.968632, 0.996749} ,
{-1.969459, 0.997037} ,
{1.969459, 0.997037} ,
{-1.970220, 0.997314} ,
{1.970220, 0.997314} ,
{-1.970920, 0.997580} ,
{1.970920, 0.997580} ,
{1.971563, 0.997837} ,
{-1.971563, 0.997837} ,
{-1.972153, 0.998085} ,
{1.972153, 0.998085} ,
{-1.972692, 0.998327} ,
{1.972692, 0.998327} ,
{1.973184, 0.998562} ,
{-1.973184, 0.998562} ,
{-1.973632, 0.998792} ,
{1.973632, 0.998792} ,
{1.974036, 0.999017} ,
{-1.974036, 0.999017} ,
{1.974399, 0.999239} ,
{-1.974399, 0.999239} ,
{1.974723, 0.999458} ,
{-1.974723, 0.999458} ,
{1.975008, 0.999676} ,
{-1.975008, 0.999676} ,
{1.975258, 0.999892} ,
{-1.975258, 0.999892} 
};

float B1[Korder][3] = { 
{0.977045, 0.166373} ,
{0.977045, -0.166373} ,
{0.977045, 0.485137} ,
{0.977045, -0.485137} ,
{0.977045, 0.767282} ,
{0.977045, -0.767282} ,
{0.977045, -1.002017} ,
{0.977045, 1.002017} ,
{0.977045, -1.189435} ,
{0.977045, 1.189435} ,
{0.977045, -1.335740} ,
{0.977045, 1.335740} ,
{0.977045, 1.448975} ,
{0.977045, -1.448975} ,
{0.977045, 1.536669} ,
{0.977045, -1.536669} ,
{0.977045, 1.605003} ,
{0.977045, -1.605003} ,
{0.977045, 1.658738} ,
{0.977045, -1.658738} ,
{0.977045, 1.701441} ,
{0.977045, -1.701441} ,
{0.977045, 1.735750} ,
{0.977045, -1.735750} ,
{0.977045, 1.763614} ,
{0.977045, -1.763614} ,
{0.977045, -1.786479} ,
{0.977045, 1.786479} ,
{0.977045, -1.805426} ,
{0.977045, 1.805426} ,
{0.977045, -1.821270} ,
{0.977045, 1.821270} ,
{0.977045, 1.834632} ,
{0.977045, -1.834632} ,
{0.977045, -1.845989} ,
{0.977045, 1.845989} ,
{0.977045, -1.855712} ,
{0.977045, 1.855712} ,
{0.977045, 1.864091} ,
{0.977045, -1.864091} ,
{0.977045, 1.871356} ,
{0.977045, -1.871356} ,
{0.977045, 1.877690} ,
{0.977045, -1.877690} ,
{0.977045, 1.883242} ,
{0.977045, -1.883242} ,
{0.977045, 1.888132} ,
{0.977045, -1.888132} ,
{0.977045, -1.892456} ,
{0.977045, 1.892456} ,
{0.977045, 1.896297} ,
{0.977045, -1.896297} ,
{0.977045, -1.899720} ,
{0.977045, 1.899720} ,
{0.977045, 1.902782} ,
{0.977045, -1.902782} ,
{0.977045, 1.905528} ,
{0.977045, -1.905528} ,
{0.977045, -1.907999} ,
{0.977045, 1.907999} ,
{0.977045, 1.910228} ,
{0.977045, -1.910228} ,
{0.977045, 1.912242} ,
{0.977045, -1.912242} ,
{0.977045, -1.914066} ,
{0.977045, 1.914066} ,
{0.977045, 1.915722} ,
{0.977045, -1.915722} ,
{0.977045, 1.917226} ,
{0.977045, -1.917226} ,
{0.977045, -1.918595} ,
{0.977045, 1.918595} ,
{0.977045, -1.919842} ,
{0.977045, 1.919842} ,
{0.977045, -1.920978} ,
{0.977045, 1.920978} ,
{0.977045, 1.922014} ,
{0.977045, -1.922014} ,
{0.977045, 1.922958} ,
{0.977045, -1.922958} ,
{0.977045, -1.923819} ,
{0.977045, 1.923819} ,
{0.977045, 1.924603} ,
{0.977045, -1.924603} ,
{0.977045, 1.925317} ,
{0.977045, -1.925317} ,
{0.977045, -1.925966} ,
{0.977045, 1.925966} ,
{0.977045, 1.926554} ,
{0.977045, -1.926554} ,
{0.977045, -1.927085} ,
{0.977045, 1.927085} ,
{0.977045, -1.927564} ,
{0.977045, 1.927564} ,
{0.977045, -1.927992} ,
{0.977045, 1.927992} ,
{0.977045, 1.928374} ,
{0.977045, -1.928374} ,
{0.977045, -1.928712} ,
{0.977045, 1.928712} ,
{0.977045, -1.929007} ,
{0.977045, 1.929007} ,
{0.977045, 1.929261} ,
{0.977045, -1.929261} ,
{0.977045, -1.929476} ,
{0.977045, 1.929476} ,
{0.977045, 1.929654} ,
{0.977045, -1.929654} ,
{0.977045, 1.929795} ,
{0.977045, -1.929795} ,
{0.977045, 1.929900} ,
{0.977045, -1.929900} ,
{0.977045, 1.929970} ,
{0.977045, -1.929970} ,
{0.977045, 1.930004} ,
{0.977045, -1.930004} 
};

float A2[Korder][2] = { 
{-0.077393, 0.853158} ,
{0.077393, 0.853158} ,
{0.230756, 0.855129} ,
{-0.230756, 0.855129} ,
{-0.379974, 0.858920} ,
{0.379974, 0.858920} ,
{0.522686, 0.864253} ,
{-0.522686, 0.864253} ,
{0.657051, 0.870774} ,
{-0.657051, 0.870774} ,
{0.781818, 0.878108} ,
{-0.781818, 0.878108} ,
{0.896317, 0.885897} ,
{-0.896317, 0.885897} ,
{1.000380, 0.893836} ,
{-1.000380, 0.893836} ,
{1.094236, 0.901682} ,
{-1.094236, 0.901682} ,
{1.178396, 0.909260} ,
{-1.178396, 0.909260} ,
{-1.253547, 0.916450} ,
{1.253547, 0.916450} ,
{-1.320467, 0.923184} ,
{1.320467, 0.923184} ,
{-1.379962, 0.929430} ,
{1.379962, 0.929430} ,
{1.432820, 0.935181} ,
{-1.432820, 0.935181} ,
{1.479788, 0.940449} ,
{-1.479788, 0.940449} ,
{1.521551, 0.945259} ,
{-1.521551, 0.945259} ,
{-1.558728, 0.949641} ,
{1.558728, 0.949641} ,
{1.591874, 0.953627} ,
{-1.591874, 0.953627} ,
{-1.621476, 0.957252} ,
{1.621476, 0.957252} ,
{1.647964, 0.960550} ,
{-1.647964, 0.960550} ,
{-1.671715, 0.963551} ,
{1.671715, 0.963551} ,
{1.693054, 0.966285} ,
{-1.693054, 0.966285} ,
{-1.712268, 0.968780} ,
{1.712268, 0.968780} ,
{-1.729604, 0.971058} ,
{1.729604, 0.971058} ,
{-1.745278, 0.973144} ,
{1.745278, 0.973144} ,
{-1.759478, 0.975056} ,
{1.759478, 0.975056} ,
{-1.772367, 0.976812} ,
{1.772367, 0.976812} ,
{1.784088, 0.978428} ,
{-1.784088, 0.978428} ,
{1.794765, 0.979919} ,
{-1.794765, 0.979919} ,
{1.804508, 0.981296} ,
{-1.804508, 0.981296} ,
{1.813411, 0.982572} ,
{-1.813411, 0.982572} ,
{1.821560, 0.983757} ,
{-1.821560, 0.983757} ,
{-1.829028, 0.984858} ,
{1.829028, 0.984858} ,
{-1.835879, 0.985886} ,
{1.835879, 0.985886} ,
{-1.842171, 0.986845} ,
{1.842171, 0.986845} ,
{1.847956, 0.987744} ,
{-1.847956, 0.987744} ,
{1.853277, 0.988588} ,
{-1.853277, 0.988588} ,
{1.858175, 0.989382} ,
{-1.858175, 0.989382} ,
{1.862685, 0.990130} ,
{-1.862685, 0.990130} ,
{1.866838, 0.990838} ,
{-1.866838, 0.990838} ,
{1.870664, 0.991509} ,
{-1.870664, 0.991509} ,
{1.874186, 0.992146} ,
{-1.874186, 0.992146} ,
{1.877427, 0.992753} ,
{-1.877427, 0.992753} ,
{1.880407, 0.993333} ,
{-1.880407, 0.993333} ,
{-1.883144, 0.993888} ,
{1.883144, 0.993888} ,
{1.885653, 0.994421} ,
{-1.885653, 0.994421} ,
{-1.887949, 0.994934} ,
{1.887949, 0.994934} ,
{1.890045, 0.995430} ,
{-1.890045, 0.995430} ,
{1.891951, 0.995909} ,
{-1.891951, 0.995909} ,
{-1.893678, 0.996375} ,
{1.893678, 0.996375} ,
{1.895234, 0.996829} ,
{-1.895234, 0.996829} ,
{1.896626, 0.997272} ,
{-1.896626, 0.997272} ,
{1.897862, 0.997706} ,
{-1.897862, 0.997706} ,
{-1.898948, 0.998133} ,
{1.898948, 0.998133} ,
{1.899888, 0.998554} ,
{-1.899888, 0.998554} ,
{1.900686, 0.998970} ,
{-1.900686, 0.998970} ,
{-1.901346, 0.999383} ,
{1.901346, 0.999383} ,
{-1.901871, 0.999795} ,
{1.901871, 0.999795} 
};

float B2[Korder][3] = { 
{0.979570, -0.081535} ,
{0.979570, 0.081535} ,
{0.979570, 0.242870} ,
{0.979570, -0.242870} ,
{0.979570, -0.399177} ,
{0.979570, 0.399177} ,
{0.979570, 0.547663} ,
{0.979570, -0.547663} ,
{0.979570, 0.686242} ,
{0.979570, -0.686242} ,
{0.979570, 0.813605} ,
{0.979570, -0.813605} ,
{0.979570, 0.929180} ,
{0.979570, -0.929180} ,
{0.979570, 1.032998} ,
{0.979570, -1.032998} ,
{0.979570, 1.125538} ,
{0.979570, -1.125538} ,
{0.979570, 1.207566} ,
{0.979570, -1.207566} ,
{0.979570, -1.280007} ,
{0.979570, 1.280007} ,
{0.979570, -1.343843} ,
{0.979570, 1.343843} ,
{0.979570, -1.400045} ,
{0.979570, 1.400045} ,
{0.979570, 1.449527} ,
{0.979570, -1.449527} ,
{0.979570, 1.493129} ,
{0.979570, -1.493129} ,
{0.979570, 1.531603} ,
{0.979570, -1.531603} ,
{0.979570, -1.565612} ,
{0.979570, 1.565612} ,
{0.979570, 1.595737} ,
{0.979570, -1.595737} ,
{0.979570, -1.622483} ,
{0.979570, 1.622483} ,
{0.979570, 1.646285} ,
{0.979570, -1.646285} ,
{0.979570, -1.667519} ,
{0.979570, 1.667519} ,
{0.979570, 1.686509} ,
{0.979570, -1.686509} ,
{0.979570, -1.703532} ,
{0.979570, 1.703532} ,
{0.979570, -1.718829} ,
{0.979570, 1.718829} ,
{0.979570, -1.732606} ,
{0.979570, 1.732606} ,
{0.979570, -1.745041} ,
{0.979570, 1.745041} ,
{0.979570, -1.756288} ,
{0.979570, 1.756288} ,
{0.979570, 1.766480} ,
{0.979570, -1.766480} ,
{0.979570, 1.775733} ,
{0.979570, -1.775733} ,
{0.979570, 1.784148} ,
{0.979570, -1.784148} ,
{0.979570, 1.791812} ,
{0.979570, -1.791812} ,
{0.979570, 1.798803} ,
{0.979570, -1.798803} ,
{0.979570, -1.805186} ,
{0.979570, 1.805186} ,
{0.979570, -1.811021} ,
{0.979570, 1.811021} ,
{0.979570, -1.816360} ,
{0.979570, 1.816360} ,
{0.979570, 1.821247} ,
{0.979570, -1.821247} ,
{0.979570, 1.825724} ,
{0.979570, -1.825724} ,
{0.979570, 1.829825} ,
{0.979570, -1.829825} ,
{0.979570, 1.833581} ,
{0.979570, -1.833581} ,
{0.979570, 1.837022} ,
{0.979570, -1.837022} ,
{0.979570, 1.840171} ,
{0.979570, -1.840171} ,
{0.979570, 1.843050} ,
{0.979570, -1.843050} ,
{0.979570, 1.845678} ,
{0.979570, -1.845678} ,
{0.979570, 1.848073} ,
{0.979570, -1.848073} ,
{0.979570, -1.850251} ,
{0.979570, 1.850251} ,
{0.979570, 1.852224} ,
{0.979570, -1.852224} ,
{0.979570, -1.854005} ,
{0.979570, 1.854005} ,
{0.979570, 1.855604} ,
{0.979570, -1.855604} ,
{0.979570, 1.857031} ,
{0.979570, -1.857031} ,
{0.979570, -1.858294} ,
{0.979570, 1.858294} ,
{0.979570, 1.859399} ,
{0.979570, -1.859399} ,
{0.979570, 1.860354} ,
{0.979570, -1.860354} ,
{0.979570, 1.861163} ,
{0.979570, -1.861163} ,
{0.979570, -1.861830} ,
{0.979570, 1.861830} ,
{0.979570, 1.862360} ,
{0.979570, -1.862360} ,
{0.979570, 1.862756} ,
{0.979570, -1.862756} ,
{0.979570, -1.863018} ,
{0.979570, 1.863018} ,
{0.979570, -1.863148} ,
{0.979570, 1.863148} 
};

float A3[Korder][2] = { 
{0.036008, 0.931460} ,
{-0.036008, 0.931460} ,
{0.107861, 0.931692} ,
{-0.107861, 0.931692} ,
{0.179226, 0.932151} ,
{-0.179226, 0.932151} ,
{-0.249792, 0.932830} ,
{0.249792, 0.932830} ,
{0.319263, 0.933716} ,
{-0.319263, 0.933716} ,
{0.387367, 0.934795} ,
{-0.387367, 0.934795} ,
{0.453858, 0.936048} ,
{-0.453858, 0.936048} ,
{-0.518521, 0.937456} ,
{0.518521, 0.937456} ,
{0.581177, 0.938999} ,
{-0.581177, 0.938999} ,
{-0.641675, 0.940655} ,
{0.641675, 0.940655} ,
{0.699904, 0.942404} ,
{-0.699904, 0.942404} ,
{0.755779, 0.944225} ,
{-0.755779, 0.944225} ,
{0.809250, 0.946100} ,
{-0.809250, 0.946100} ,
{0.860291, 0.948010} ,
{-0.860291, 0.948010} ,
{0.908902, 0.949939} ,
{-0.908902, 0.949939} ,
{0.955105, 0.951873} ,
{-0.955105, 0.951873} ,
{-0.998937, 0.953799} ,
{0.998937, 0.953799} ,
{-1.040454, 0.955707} ,
{1.040454, 0.955707} ,
{1.079720, 0.957588} ,
{-1.079720, 0.957588} ,
{1.116810, 0.959433} ,
{-1.116810, 0.959433} ,
{-1.151807, 0.961238} ,
{1.151807, 0.961238} ,
{-1.184795, 0.962998} ,
{1.184795, 0.962998} ,
{-1.215865, 0.964708} ,
{1.215865, 0.964708} ,
{1.245105, 0.966368} ,
{-1.245105, 0.966368} ,
{1.272605, 0.967974} ,
{-1.272605, 0.967974} ,
{-1.298455, 0.969527} ,
{1.298455, 0.969527} ,
{1.322741, 0.971026} ,
{-1.322741, 0.971026} ,
{1.345546, 0.972473} ,
{-1.345546, 0.972473} ,
{1.366953, 0.973866} ,
{-1.366953, 0.973866} ,
{1.387037, 0.975209} ,
{-1.387037, 0.975209} ,
{-1.405873, 0.976502} ,
{1.405873, 0.976502} ,
{1.423531, 0.977747} ,
{-1.423531, 0.977747} ,
{1.440077, 0.978945} ,
{-1.440077, 0.978945} ,
{-1.455573, 0.980100} ,
{1.455573, 0.980100} ,
{-1.470078, 0.981212} ,
{1.470078, 0.981212} ,
{-1.483646, 0.982285} ,
{1.483646, 0.982285} ,
{1.496329, 0.983319} ,
{-1.496329, 0.983319} ,
{-1.508173, 0.984318} ,
{1.508173, 0.984318} ,
{1.519224, 0.985282} ,
{-1.519224, 0.985282} ,
{-1.529523, 0.986215} ,
{1.529523, 0.986215} ,
{-1.539107, 0.987118} ,
{1.539107, 0.987118} ,
{1.548012, 0.987994} ,
{-1.548012, 0.987994} ,
{1.556270, 0.988843} ,
{-1.556270, 0.988843} ,
{1.563911, 0.989669} ,
{-1.563911, 0.989669} ,
{1.570962, 0.990473} ,
{-1.570962, 0.990473} ,
{-1.577449, 0.991256} ,
{1.577449, 0.991256} ,
{-1.583395, 0.992021} ,
{1.583395, 0.992021} ,
{1.588819, 0.992769} ,
{-1.588819, 0.992769} ,
{-1.593741, 0.993502} ,
{1.593741, 0.993502} ,
{-1.598177, 0.994221} ,
{1.598177, 0.994221} ,
{1.602143, 0.994928} ,
{-1.602143, 0.994928} ,
{-1.605651, 0.995625} ,
{1.605651, 0.995625} ,
{-1.608713, 0.996312} ,
{1.608713, 0.996312} ,
{-1.611339, 0.996992} ,
{1.611339, 0.996992} ,
{1.613536, 0.997667} ,
{-1.613536, 0.997667} ,
{-1.615313, 0.998336} ,
{1.615313, 0.998336} ,
{-1.616673, 0.999003} ,
{1.616673, 0.999003} ,
{1.617621, 0.999668} ,
{-1.617621, 0.999668} 
};

float B3[Korder][3] = { 
{0.984640, 0.036678} ,
{0.984640, -0.036678} ,
{0.984640, 0.109854} ,
{0.984640, -0.109854} ,
{0.984640, 0.182497} ,
{0.984640, -0.182497} ,
{0.984640, -0.254266} ,
{0.984640, 0.254266} ,
{0.984640, 0.324839} ,
{0.984640, -0.324839} ,
{0.984640, 0.393921} ,
{0.984640, -0.393921} ,
{0.984640, 0.461251} ,
{0.984640, -0.461251} ,
{0.984640, -0.526601} ,
{0.984640, 0.526601} ,
{0.984640, 0.589782} ,
{0.984640, -0.589782} ,
{0.984640, -0.650643} ,
{0.984640, 0.650643} ,
{0.984640, 0.709070} ,
{0.984640, -0.709070} ,
{0.984640, 0.764987} ,
{0.984640, -0.764987} ,
{0.984640, 0.818349} ,
{0.984640, -0.818349} ,
{0.984640, 0.869142} ,
{0.984640, -0.869142} ,
{0.984640, 0.917376} ,
{0.984640, -0.917376} ,
{0.984640, 0.963086} ,
{0.984640, -0.963086} ,
{0.984640, -1.006323} ,
{0.984640, 1.006323} ,
{0.984640, -1.047156} ,
{0.984640, 1.047156} ,
{0.984640, 1.085662} ,
{0.984640, -1.085662} ,
{0.984640, 1.121930} ,
{0.984640, -1.121930} ,
{0.984640, -1.156051} ,
{0.984640, 1.156051} ,
{0.984640, -1.188124} ,
{0.984640, 1.188124} ,
{0.984640, -1.218247} ,
{0.984640, 1.218247} ,
{0.984640, 1.246517} ,
{0.984640, -1.246517} ,
{0.984640, 1.273034} ,
{0.984640, -1.273034} ,
{0.984640, -1.297892} ,
{0.984640, 1.297892} ,
{0.984640, 1.321184} ,
{0.984640, -1.321184} ,
{0.984640, 1.342998} ,
{0.984640, -1.342998} ,
{0.984640, 1.363420} ,
{0.984640, -1.363420} ,
{0.984640, 1.382531} ,
{0.984640, -1.382531} ,
{0.984640, -1.400407} ,
{0.984640, 1.400407} ,
{0.984640, 1.417120} ,
{0.984640, -1.417120} ,
{0.984640, 1.432738} ,
{0.984640, -1.432738} ,
{0.984640, -1.447325} ,
{0.984640, 1.447325} ,
{0.984640, -1.460940} ,
{0.984640, 1.460940} ,
{0.984640, -1.473638} ,
{0.984640, 1.473638} ,
{0.984640, 1.485471} ,
{0.984640, -1.485471} ,
{0.984640, -1.496487} ,
{0.984640, 1.496487} ,
{0.984640, 1.506729} ,
{0.984640, -1.506729} ,
{0.984640, -1.516239} ,
{0.984640, 1.516239} ,
{0.984640, -1.525055} ,
{0.984640, 1.525055} ,
{0.984640, 1.533210} ,
{0.984640, -1.533210} ,
{0.984640, 1.540738} ,
{0.984640, -1.540738} ,
{0.984640, 1.547667} ,
{0.984640, -1.547667} ,
{0.984640, 1.554023} ,
{0.984640, -1.554023} ,
{0.984640, -1.559832} ,
{0.984640, 1.559832} ,
{0.984640, -1.565114} ,
{0.984640, 1.565114} ,
{0.984640, 1.569890} ,
{0.984640, -1.569890} ,
{0.984640, -1.574179} ,
{0.984640, 1.574179} ,
{0.984640, -1.577995} ,
{0.984640, 1.577995} ,
{0.984640, 1.581353} ,
{0.984640, -1.581353} ,
{0.984640, -1.584264} ,
{0.984640, 1.584264} ,
{0.984640, -1.586741} ,
{0.984640, 1.586741} ,
{0.984640, -1.588791} ,
{0.984640, 1.588791} ,
{0.984640, 1.590423} ,
{0.984640, -1.590423} ,
{0.984640, -1.591641} ,
{0.984640, 1.591641} ,
{0.984640, -1.592451} ,
{0.984640, 1.592451} ,
{0.984640, 1.592855} ,
{0.984640, -1.592855} 
};

float A4[Korder][2] = { 
{0.008725, 0.983379} ,
{-0.008725, 0.983379} ,
{0.026167, 0.983394} ,
{-0.026167, 0.983394} ,
{0.043584, 0.983423} ,
{-0.043584, 0.983423} ,
{-0.060960, 0.983467} ,
{0.060960, 0.983467} ,
{0.078279, 0.983525} ,
{-0.078279, 0.983525} ,
{0.095525, 0.983598} ,
{-0.095525, 0.983598} ,
{0.112681, 0.983685} ,
{-0.112681, 0.983685} ,
{0.129731, 0.983786} ,
{-0.129731, 0.983786} ,
{0.146662, 0.983900} ,
{-0.146662, 0.983900} ,
{0.163456, 0.984029} ,
{-0.163456, 0.984029} ,
{-0.180099, 0.984170} ,
{0.180099, 0.984170} ,
{-0.196578, 0.984325} ,
{0.196578, 0.984325} ,
{0.212877, 0.984493} ,
{-0.212877, 0.984493} ,
{-0.228983, 0.984673} ,
{0.228983, 0.984673} ,
{0.244882, 0.984865} ,
{-0.244882, 0.984865} ,
{0.260562, 0.985070} ,
{-0.260562, 0.985070} ,
{0.276010, 0.985285} ,
{-0.276010, 0.985285} ,
{0.291215, 0.985512} ,
{-0.291215, 0.985512} ,
{0.306164, 0.985750} ,
{-0.306164, 0.985750} ,
{0.320848, 0.985999} ,
{-0.320848, 0.985999} ,
{-0.335254, 0.986257} ,
{0.335254, 0.986257} ,
{0.349375, 0.986525} ,
{-0.349375, 0.986525} ,
{0.363199, 0.986802} ,
{-0.363199, 0.986802} ,
{0.376718, 0.987088} ,
{-0.376718, 0.987088} ,
{0.389924, 0.987383} ,
{-0.389924, 0.987383} ,
{0.402808, 0.987686} ,
{-0.402808, 0.987686} ,
{-0.415363, 0.987997} ,
{0.415363, 0.987997} ,
{0.427583, 0.988315} ,
{-0.427583, 0.988315} ,
{-0.439460, 0.988640} ,
{0.439460, 0.988640} ,
{0.450988, 0.988971} ,
{-0.450988, 0.988971} ,
{-0.462162, 0.989309} ,
{0.462162, 0.989309} ,
{0.472976, 0.989653} ,
{-0.472976, 0.989653} ,
{0.483426, 0.990003} ,
{-0.483426, 0.990003} ,
{0.493506, 0.990358} ,
{-0.493506, 0.990358} ,
{-0.503213, 0.990718} ,
{0.503213, 0.990718} ,
{0.512544, 0.991082} ,
{-0.512544, 0.991082} ,
{-0.521493, 0.991451} ,
{0.521493, 0.991451} ,
{0.530059, 0.991824} ,
{-0.530059, 0.991824} ,
{0.538239, 0.992201} ,
{-0.538239, 0.992201} ,
{0.546029, 0.992581} ,
{-0.546029, 0.992581} ,
{-0.553427, 0.992965} ,
{0.553427, 0.992965} ,
{-0.560432, 0.993351} ,
{0.560432, 0.993351} ,
{-0.567041, 0.993741} ,
{0.567041, 0.993741} ,
{0.573252, 0.994133} ,
{-0.573252, 0.994133} ,
{0.579064, 0.994527} ,
{-0.579064, 0.994527} ,
{-0.584476, 0.994924} ,
{0.584476, 0.994924} ,
{0.589486, 0.995323} ,
{-0.589486, 0.995323} ,
{0.594093, 0.995723} ,
{-0.594093, 0.995723} ,
{0.598296, 0.996126} ,
{-0.598296, 0.996126} ,
{-0.602095, 0.996529} ,
{0.602095, 0.996529} ,
{-0.605488, 0.996934} ,
{0.605488, 0.996934} ,
{0.608474, 0.997341} ,
{-0.608474, 0.997341} ,
{0.611053, 0.997748} ,
{-0.611053, 0.997748} ,
{0.613225, 0.998156} ,
{-0.613225, 0.998156} ,
{0.614989, 0.998565} ,
{-0.614989, 0.998565} ,
{0.616344, 0.998974} ,
{-0.616344, 0.998974} ,
{0.617290, 0.999384} ,
{-0.617290, 0.999384} ,
{0.617826, 0.999795} ,
{-0.617826, 0.999795} 
};

float B4[Korder][3] = { 
{0.994854, 0.008750} ,
{0.994854, -0.008750} ,
{0.994854, 0.026241} ,
{0.994854, -0.026241} ,
{0.994854, 0.043706} ,
{0.994854, -0.043706} ,
{0.994854, -0.061130} ,
{0.994854, 0.061130} ,
{0.994854, 0.078495} ,
{0.994854, -0.078495} ,
{0.994854, 0.095784} ,
{0.994854, -0.095784} ,
{0.994854, 0.112981} ,
{0.994854, -0.112981} ,
{0.994854, 0.130071} ,
{0.994854, -0.130071} ,
{0.994854, 0.147037} ,
{0.994854, -0.147037} ,
{0.994854, 0.163864} ,
{0.994854, -0.163864} ,
{0.994854, -0.180537} ,
{0.994854, 0.180537} ,
{0.994854, -0.197040} ,
{0.994854, 0.197040} ,
{0.994854, 0.213359} ,
{0.994854, -0.213359} ,
{0.994854, -0.229481} ,
{0.994854, 0.229481} ,
{0.994854, 0.245392} ,
{0.994854, -0.245392} ,
{0.994854, 0.261078} ,
{0.994854, -0.261078} ,
{0.994854, 0.276527} ,
{0.994854, -0.276527} ,
{0.994854, 0.291727} ,
{0.994854, -0.291727} ,
{0.994854, 0.306667} ,
{0.994854, -0.306667} ,
{0.994854, 0.321335} ,
{0.994854, -0.321335} ,
{0.994854, -0.335720} ,
{0.994854, 0.335720} ,
{0.994854, 0.349814} ,
{0.994854, -0.349814} ,
{0.994854, 0.363605} ,
{0.994854, -0.363605} ,
{0.994854, 0.377086} ,
{0.994854, -0.377086} ,
{0.994854, 0.390247} ,
{0.994854, -0.390247} ,
{0.994854, 0.403081} ,
{0.994854, -0.403081} ,
{0.994854, -0.415581} ,
{0.994854, 0.415581} ,
{0.994854, 0.427739} ,
{0.994854, -0.427739} ,
{0.994854, -0.439550} ,
{0.994854, 0.439550} ,
{0.994854, 0.451006} ,
{0.994854, -0.451006} ,
{0.994854, -0.462102} ,
{0.994854, 0.462102} ,
{0.994854, 0.472834} ,
{0.994854, -0.472834} ,
{0.994854, 0.483197} ,
{0.994854, -0.483197} ,
{0.994854, 0.493185} ,
{0.994854, -0.493185} ,
{0.994854, -0.502796} ,
{0.994854, 0.502796} ,
{0.994854, 0.512026} ,
{0.994854, -0.512026} ,
{0.994854, -0.520871} ,
{0.994854, 0.520871} ,
{0.994854, 0.529328} ,
{0.994854, -0.529328} ,
{0.994854, 0.537395} ,
{0.994854, -0.537395} ,
{0.994854, 0.545070} ,
{0.994854, -0.545070} ,
{0.994854, -0.552350} ,
{0.994854, 0.552350} ,
{0.994854, -0.559233} ,
{0.994854, 0.559233} ,
{0.994854, -0.565718} ,
{0.994854, 0.565718} ,
{0.994854, 0.571803} ,
{0.994854, -0.571803} ,
{0.994854, 0.577487} ,
{0.994854, -0.577487} ,
{0.994854, -0.582769} ,
{0.994854, 0.582769} ,
{0.994854, 0.587647} ,
{0.994854, -0.587647} ,
{0.994854, 0.592122} ,
{0.994854, -0.592122} ,
{0.994854, 0.596191} ,
{0.994854, -0.596191} ,
{0.994854, -0.599855} ,
{0.994854, 0.599855} ,
{0.994854, -0.603114} ,
{0.994854, 0.603114} ,
{0.994854, 0.605965} ,
{0.994854, -0.605965} ,
{0.994854, 0.608410} ,
{0.994854, -0.608410} ,
{0.994854, 0.610448} ,
{0.994854, -0.610448} ,
{0.994854, 0.612079} ,
{0.994854, -0.612079} ,
{0.994854, 0.613302} ,
{0.994854, -0.613302} ,
{0.994854, 0.614117} ,
{0.994854, -0.614117} ,
{0.994854, 0.614525} ,
{0.994854, -0.614525} 
};

