#define Korder 50 
float A1[Korder][2] = { 
{-0.306447, 0.469929} ,
{0.306447, 0.469929} ,
{0.835975, 0.575132} ,
{-0.835975, 0.575132} ,
{1.209262, 0.691765} ,
{-1.209262, 0.691765} ,
{-1.451662, 0.780355} ,
{1.451662, 0.780355} ,
{-1.606892, 0.841118} ,
{1.606892, 0.841118} ,
{1.708152, 0.882187} ,
{-1.708152, 0.882187} ,
{-1.776249, 0.910391} ,
{1.776249, 0.910391} ,
{1.823562, 0.930264} ,
{-1.823562, 0.930264} ,
{1.857462, 0.944654} ,
{-1.857462, 0.944654} ,
{1.882430, 0.955352} ,
{-1.882430, 0.955352} ,
{1.901273, 0.963498} ,
{-1.901273, 0.963498} ,
{1.915796, 0.969839} ,
{-1.915796, 0.969839} ,
{1.927198, 0.974875} ,
{-1.927198, 0.974875} ,
{1.936294, 0.978950} ,
{-1.936294, 0.978950} ,
{1.943651, 0.982303} ,
{-1.943651, 0.982303} ,
{-1.949676, 0.985110} ,
{1.949676, 0.985110} ,
{1.954660, 0.987495} ,
{-1.954660, 0.987495} ,
{1.958822, 0.989556} ,
{-1.958822, 0.989556} ,
{-1.962322, 0.991363} ,
{1.962322, 0.991363} ,
{-1.965287, 0.992974} ,
{1.965287, 0.992974} ,
{-1.967809, 0.994434} ,
{1.967809, 0.994434} ,
{1.969963, 0.995779} ,
{-1.969963, 0.995779} ,
{-1.971807, 0.997041} ,
{1.971807, 0.997041} ,
{1.973386, 0.998246} ,
{-1.973386, 0.998246} ,
{-1.974735, 0.999419} ,
{1.974735, 0.999419} 
};

float B1[Korder][3] = { 
{0.947558, -0.367708} ,
{0.947558, 0.367708} ,
{0.947558, 0.966124} ,
{0.947558, -0.966124} ,
{0.947558, 1.329913} ,
{0.947558, -1.329913} ,
{0.947558, -1.532113} ,
{0.947558, 1.532113} ,
{0.947558, -1.646979} ,
{0.947558, 1.646979} ,
{0.947558, 1.715898} ,
{0.947558, -1.715898} ,
{0.947558, -1.759647} ,
{0.947558, 1.759647} ,
{0.947558, 1.788828} ,
{0.947558, -1.788828} ,
{0.947558, 1.809119} ,
{0.947558, -1.809119} ,
{0.947558, 1.823722} ,
{0.947558, -1.823722} ,
{0.947558, 1.834534} ,
{0.947558, -1.834534} ,
{0.947558, 1.842727} ,
{0.947558, -1.842727} ,
{0.947558, 1.849056} ,
{0.947558, -1.849056} ,
{0.947558, 1.854020} ,
{0.947558, -1.854020} ,
{0.947558, 1.857962} ,
{0.947558, -1.857962} ,
{0.947558, -1.861119} ,
{0.947558, 1.861119} ,
{0.947558, 1.863661} ,
{0.947558, -1.863661} ,
{0.947558, 1.865713} ,
{0.947558, -1.865713} ,
{0.947558, -1.867365} ,
{0.947558, 1.867365} ,
{0.947558, -1.868685} ,
{0.947558, 1.868685} ,
{0.947558, -1.869721} ,
{0.947558, 1.869721} ,
{0.947558, 1.870512} ,
{0.947558, -1.870512} ,
{0.947558, -1.871084} ,
{0.947558, 1.871084} ,
{0.947558, 1.871456} ,
{0.947558, -1.871456} ,
{0.947558, -1.871639} ,
{0.947558, 1.871639} 
};

float A2[Korder][2] = { 
{-0.165434, 0.692030} ,
{0.165434, 0.692030} ,
{0.482700, 0.711617} ,
{-0.482700, 0.711617} ,
{0.764354, 0.744108} ,
{-0.764354, 0.744108} ,
{0.999821, 0.781116} ,
{-0.999821, 0.781116} ,
{1.188960, 0.816645} ,
{-1.188960, 0.816645} ,
{1.337533, 0.847827} ,
{-1.337533, 0.847827} ,
{1.453182, 0.873944} ,
{-1.453182, 0.873944} ,
{1.543171, 0.895336} ,
{-1.543171, 0.895336} ,
{1.613542, 0.912714} ,
{-1.613542, 0.912714} ,
{1.669006, 0.926832} ,
{-1.669006, 0.926832} ,
{1.713124, 0.938359} ,
{-1.713124, 0.938359} ,
{1.748551, 0.947842} ,
{-1.748551, 0.947842} ,
{1.777262, 0.955716} ,
{-1.777262, 0.955716} ,
{-1.800731, 0.962322} ,
{1.800731, 0.962322} ,
{-1.820060, 0.967926} ,
{1.820060, 0.967926} ,
{-1.836085, 0.972734} ,
{1.836085, 0.972734} ,
{-1.849440, 0.976909} ,
{1.849440, 0.976909} ,
{1.860613, 0.980579} ,
{-1.860613, 0.980579} ,
{-1.869981, 0.983848} ,
{1.869981, 0.983848} ,
{1.877835, 0.986799} ,
{-1.877835, 0.986799} ,
{-1.884403, 0.989503} ,
{1.884403, 0.989503} ,
{1.889863, 0.992016} ,
{-1.889863, 0.992016} ,
{-1.894351, 0.994390} ,
{1.894351, 0.994390} ,
{1.897975, 0.996669} ,
{-1.897975, 0.996669} ,
{1.900810, 0.998895} ,
{-1.900810, 0.998895} 
};

float B2[Korder][3] = { 
{0.953258, -0.182965} ,
{0.953258, 0.182965} ,
{0.953258, 0.529083} ,
{0.953258, -0.529083} ,
{0.953258, 0.825239} ,
{0.953258, -0.825239} ,
{0.953258, 1.060733} ,
{0.953258, -1.060733} ,
{0.953258, 1.240077} ,
{0.953258, -1.240077} ,
{0.953258, 1.374110} ,
{0.953258, -1.374110} ,
{0.953258, 1.474007} ,
{0.953258, -1.474007} ,
{0.953258, 1.548948} ,
{0.953258, -1.548948} ,
{0.953258, 1.605794} ,
{0.953258, -1.605794} ,
{0.953258, 1.649469} ,
{0.953258, -1.649469} ,
{0.953258, 1.683462} ,
{0.953258, -1.683462} ,
{0.953258, 1.710240} ,
{0.953258, -1.710240} ,
{0.953258, 1.731563} ,
{0.953258, -1.731563} ,
{0.953258, -1.748700} ,
{0.953258, 1.748700} ,
{0.953258, -1.762571} ,
{0.953258, 1.762571} ,
{0.953258, -1.773857} ,
{0.953258, 1.773857} ,
{0.953258, -1.783064} ,
{0.953258, 1.783064} ,
{0.953258, 1.790572} ,
{0.953258, -1.790572} ,
{0.953258, -1.796668} ,
{0.953258, 1.796668} ,
{0.953258, 1.801569} ,
{0.953258, -1.801569} ,
{0.953258, -1.805441} ,
{0.953258, 1.805441} ,
{0.953258, 1.808408} ,
{0.953258, -1.808408} ,
{0.953258, -1.810560} ,
{0.953258, 1.810560} ,
{0.953258, 1.811961} ,
{0.953258, -1.811961} ,
{0.953258, 1.812652} ,
{0.953258, -1.812652} 
};

float A3[Korder][2] = { 
{0.080035, 0.848378} ,
{-0.080035, 0.848378} ,
{-0.238335, 0.850991} ,
{0.238335, 0.850991} ,
{0.391512, 0.855979} ,
{-0.391512, 0.855979} ,
{0.536729, 0.862920} ,
{-0.536729, 0.862920} ,
{0.671885, 0.871292} ,
{-0.671885, 0.871292} ,
{0.795678, 0.880558} ,
{-0.795678, 0.880558} ,
{0.907553, 0.890241} ,
{-0.907553, 0.890241} ,
{1.007567, 0.899951} ,
{-1.007567, 0.899951} ,
{1.096218, 0.909406} ,
{-1.096218, 0.909406} ,
{1.174287, 0.918418} ,
{-1.174287, 0.918418} ,
{1.242702, 0.926881} ,
{-1.242702, 0.926881} ,
{1.302439, 0.934747} ,
{-1.302439, 0.934747} ,
{1.354452, 0.942012} ,
{-1.354452, 0.942012} ,
{1.399633, 0.948700} ,
{-1.399633, 0.948700} ,
{1.438793, 0.954851} ,
{-1.438793, 0.954851} ,
{-1.472648, 0.960515} ,
{1.472648, 0.960515} ,
{-1.501822, 0.965747} ,
{1.501822, 0.965747} ,
{1.526852, 0.970601} ,
{-1.526852, 0.970601} ,
{-1.548192, 0.975130} ,
{1.548192, 0.975130} ,
{-1.566225, 0.979387} ,
{1.566225, 0.979387} ,
{1.581263, 0.983420} ,
{-1.581263, 0.983420} ,
{1.593564, 0.987275} ,
{-1.593564, 0.987275} ,
{1.603329, 0.990998} ,
{-1.603329, 0.990998} ,
{1.610710, 0.994630} ,
{-1.610710, 0.994630} ,
{1.615814, 0.998214} ,
{-1.615814, 0.998214} 
};

float B3[Korder][3] = { 
{0.964752, 0.083118} ,
{0.964752, -0.083118} ,
{0.964752, -0.247203} ,
{0.964752, 0.247203} ,
{0.964752, 0.405100} ,
{0.964752, -0.405100} ,
{0.964752, 0.553495} ,
{0.964752, -0.553495} ,
{0.964752, 0.690066} ,
{0.964752, -0.690066} ,
{0.964752, 0.813539} ,
{0.964752, -0.813539} ,
{0.964752, 0.923565} ,
{0.964752, -0.923565} ,
{0.964752, 1.020502} ,
{0.964752, -1.020502} ,
{0.964752, 1.105178} ,
{0.964752, -1.105178} ,
{0.964752, 1.178681} ,
{0.964752, -1.178681} ,
{0.964752, 1.242195} ,
{0.964752, -1.242195} ,
{0.964752, 1.296897} ,
{0.964752, -1.296897} ,
{0.964752, 1.343889} ,
{0.964752, -1.343889} ,
{0.964752, 1.384163} ,
{0.964752, -1.384163} ,
{0.964752, 1.418592} ,
{0.964752, -1.418592} ,
{0.964752, -1.447928} ,
{0.964752, 1.447928} ,
{0.964752, -1.472809} ,
{0.964752, 1.472809} ,
{0.964752, 1.493773} ,
{0.964752, -1.493773} ,
{0.964752, -1.511264} ,
{0.964752, 1.511264} ,
{0.964752, -1.525648} ,
{0.964752, 1.525648} ,
{0.964752, 1.537222} ,
{0.964752, -1.537222} ,
{0.964752, 1.546217} ,
{0.964752, -1.546217} ,
{0.964752, 1.552814} ,
{0.964752, -1.552814} ,
{0.964752, 1.557142} ,
{0.964752, -1.557142} ,
{0.964752, 1.559285} ,
{0.964752, -1.559285} 
};

float A4[Korder][2] = { 
{-0.020008, 0.961940} ,
{0.020008, 0.961940} ,
{0.059927, 0.962119} ,
{-0.059927, 0.962119} ,
{-0.099551, 0.962473} ,
{0.099551, 0.962473} ,
{0.138689, 0.963000} ,
{-0.138689, 0.963000} ,
{0.177155, 0.963695} ,
{-0.177155, 0.963695} ,
{0.214771, 0.964550} ,
{-0.214771, 0.964550} ,
{0.251370, 0.965558} ,
{-0.251370, 0.965558} ,
{-0.286794, 0.966709} ,
{0.286794, 0.966709} ,
{0.320902, 0.967994} ,
{-0.320902, 0.967994} ,
{0.353560, 0.969402} ,
{-0.353560, 0.969402} ,
{-0.384652, 0.970923} ,
{0.384652, 0.970923} ,
{0.414075, 0.972545} ,
{-0.414075, 0.972545} ,
{0.441736, 0.974259} ,
{-0.441736, 0.974259} ,
{0.467558, 0.976055} ,
{-0.467558, 0.976055} ,
{0.491472, 0.977922} ,
{-0.491472, 0.977922} ,
{0.513423, 0.979852} ,
{-0.513423, 0.979852} ,
{0.533362, 0.981836} ,
{-0.533362, 0.981836} ,
{0.551250, 0.983868} ,
{-0.551250, 0.983868} ,
{-0.567054, 0.985939} ,
{0.567054, 0.985939} ,
{0.580748, 0.988044} ,
{-0.580748, 0.988044} ,
{0.592311, 0.990177} ,
{-0.592311, 0.990177} ,
{0.601723, 0.992333} ,
{-0.601723, 0.992333} ,
{-0.608970, 0.994508} ,
{0.608970, 0.994508} ,
{-0.614039, 0.996698} ,
{0.614039, 0.996698} ,
{0.616918, 0.998897} ,
{-0.616918, 0.998897} 
};

float B4[Korder][3] = { 
{0.988120, -0.020114} ,
{0.988120, 0.020114} ,
{0.988120, 0.060239} ,
{0.988120, -0.060239} ,
{0.988120, -0.100052} ,
{0.988120, 0.100052} ,
{0.988120, 0.139351} ,
{0.988120, -0.139351} ,
{0.988120, 0.177939} ,
{0.988120, -0.177939} ,
{0.988120, 0.215632} ,
{0.988120, -0.215632} ,
{0.988120, 0.252252} ,
{0.988120, -0.252252} ,
{0.988120, -0.287638} ,
{0.988120, 0.287638} ,
{0.988120, 0.321642} ,
{0.988120, -0.321642} ,
{0.988120, 0.354130} ,
{0.988120, -0.354130} ,
{0.988120, -0.384984} ,
{0.988120, 0.384984} ,
{0.988120, 0.414101} ,
{0.988120, -0.414101} ,
{0.988120, 0.441390} ,
{0.988120, -0.441390} ,
{0.988120, 0.466777} ,
{0.988120, -0.466777} ,
{0.988120, 0.490199} ,
{0.988120, -0.490199} ,
{0.988120, 0.511604} ,
{0.988120, -0.511604} ,
{0.988120, 0.530950} ,
{0.988120, -0.530950} ,
{0.988120, 0.548205} ,
{0.988120, -0.548205} ,
{0.988120, -0.563343} ,
{0.988120, 0.563343} ,
{0.988120, 0.576345} ,
{0.988120, -0.576345} ,
{0.988120, 0.587196} ,
{0.988120, -0.587196} ,
{0.988120, 0.595887} ,
{0.988120, -0.595887} ,
{0.988120, -0.602410} ,
{0.988120, 0.602410} ,
{0.988120, -0.606762} ,
{0.988120, 0.606762} ,
{0.988120, 0.608938} ,
{0.988120, -0.608938} 
};

